639 128
我 0.0053327414 0.0030345947 0.001628848 3.6201927e-05 0.00026113976 -0.0011936277 -0.0010731791 0.003188801 0.0027676558 0.0019372252 0.0031898234 -0.00022944005 -0.00059493247 0.003150742 0.0011875945 0.004748449 0.0031050246 -0.0017369878 0.0004891735 0.003323484 -0.00022386093 -0.0016771482 -0.0034078446 0.006614938 0.0024554778 -0.0034181005 0.0036624158 0.005232125 0.0021596537 0.002493082 0.0018216028 0.0030573104 -0.0012977915 -0.0021644551 -0.0056491 0.0003122845 -0.005610675 -0.0038852885 -0.005284661 0.0012058999 0.0028873566 0.0036330137 -0.004364118 0.0037954564 0.000573367 0.0017282012 0.0006907597 -0.0032716468 -0.00071066077 -0.00039890755 0.003570536 -0.00031060458 0.0016704744 -0.0043140384 0.0011255702 -1.8486233e-05 0.00088291627 0.0069125197 0.003390517 -0.0032285654 0.0012336032 -0.002373873 -0.0003075842 -0.00067568786 -0.0047876933 -0.0065510906 0.006184058 0.003711452 0.003899534 0.00039644213 0.003961187 0.0029741446 -0.0041896696 0.0021363157 0.00043639384 -0.0022096669 -0.0014843829 -0.0033172606 -0.00243145 0.0021926728 0.0052483734 0.0029605178 0.005592336 0.00017690794 0.003419166 0.0032630952 0.001356541 -0.0028125814 0.0025822716 0.0025774671 -0.0044928435 0.00087213 0.0003068209 -0.0035791136 0.0022765854 0.0001613175 0.0029161014 0.00087329093 -0.0014254425 -0.0020790063 -0.0050242543 0.0019314782 0.005682687 9.437368e-06 0.0009239704 0.0023006476 0.00015946098 0.0027320543 -0.00021265679 -0.001666498 0.005364599 0.0010485604 -0.00017657054 0.003209252 0.0020131448 0.00053391675 0.00058372313 0.0062247748 -0.00064711313 0.0008116234 -0.003171386 -0.00055167126 0.00060434616 0.0016149407 0.0020552864 0.0016466217 2.8749255e-05 0.000508899
的 0.006193677 0.0005629287 0.0061949627 0.0004147408 0.0008289556 0.0013600832 0.0016486162 0.0034929838 0.005251871 -0.00072759617 0.0013914781 -0.0034012552 0.00064759154 8.561108e-05 -0.000982469 0.00037821132 0.0021230935 0.00224365 0.00039938706 -0.00096126675 -0.0029670591 -0.0009402054 -6.97921e-05 0.0044908137 0.00486716 -0.0030445536 -0.0010222475 0.005655401 -0.0025225754 0.004677651 0.004881455 0.004770969 -0.0043812743 -0.003742957 -0.0043431623 -0.0043027205 -0.0029056757 -0.0013307288 -0.004455949 -0.0025232488 0.00019729813 -0.003297288 0.0009440324 0.0018524393 -0.0009708823 0.0028233188 -0.005483627 -0.0025199049 0.0051980447 0.0019027812 0.0022901301 0.0004112874 0.0029649308 -0.00670961 -0.0028128377 -0.0030550787 0.001149313 0.0034061915 0.003095515 -0.0010834796 -0.0005039854 -0.0037097316 -0.0011823842 -0.0020681738 -0.0037579346 -0.0069048936 0.004596599 0.0008709613 0.00442684 -0.0029992166 0.0016743907 0.00085685274 -0.0032493125 0.0016401496 -0.00276834 0.00014582189 0.0014990242 4.6984067e-05 0.005206552 0.0035745455 0.0025628435 0.0055798623 0.001288773 -0.005142038 0.0052736644 0.0025319774 -0.0048706094 0.0024402377 0.002455494 -0.0033771223 -0.005418291 0.0044313944 -0.0012519896 -0.0030511748 0.0051782206 0.00274064 0.004913155 -0.002538143 0.0012613438 0.0007213733 -0.0043996293 0.0008490735 0.004560998 0.0008959189 0.0031978309 0.0043682377 8.11445e-06 0.0008282611 -0.0020231048 0.0006532909 -0.00060077134 -0.0066216686 -0.002778571 -0.00041703848 -0.00038162596 -0.0016072269 -0.0011341809 0.0013438298 0.0032056144 -0.0036163796 -0.0023837404 0.0015700795 0.0031810356 0.0006768606 0.0036245564 -0.0002795208 0.0053919805 0.0002556389
什么 0.003018454 0.0027989703 0.0012319916 -0.0031450228 0.0037721964 -0.0017560469 0.0014742567 0.0039800876 0.0021094084 0.0005562175 0.0012538799 -0.002681914 -0.0018272008 0.0006747844 -0.003139064 0.0035118517 0.001562488 0.0011657149 -0.0030490428 0.0044077337 -0.0011035597 -0.0011518479 -0.002203637 0.0035597768 0.0009946508 0.0025480825 0.0043185237 0.003619858 -0.00062538026 -0.00077346334 0.0031915943 -0.0016259674 0.0008249535 0.003099627 -0.0057671987 -0.0047940942 -0.0020288292 -0.0036529666 -0.0029095947 0.0004910881 0.0037460935 0.0022832723 0.0024803125 0.0022045919 -0.0035301587 0.0002372488 -0.004834661 -0.002289864 0.0010918187 -0.0009359728 0.002859649 -0.002097075 0.0017392706 -0.0041166823 -0.0036551422 0.0017210816 -0.0031546114 0.0033254917 0.0027909125 -0.0009636064 -0.0003204163 0.0027177883 -0.0011869174 0.00020103129 -0.00579896 -0.0046163807 0.0028193754 0.0026824463 0.00053619454 -0.0012710269 0.0017102815 -0.0014201471 0.000894572 -0.00245979 0.0041505387 -0.0039305063 0.001626376 0.00047739007 0.0010763955 0.0003326286 0.0034372888 0.005154337 0.0002815611 6.904016e-05 0.004934871 -0.0027495478 0.00062391796 -0.002682636 0.002909292 0.0029877536 0.0012735389 0.002794802 -0.003560283 -0.0031796063 -0.00026530723 0.0046460233 0.0049202777 -0.0040501268 -0.0024098018 0.0011256762 -0.004700718 -6.925855e-05 0.005873806 0.00075331243 0.0020781101 -0.0024018649 0.0009958686 -0.0034720532 0.0038369868 -0.0018178193 0.0044878274 -0.004068527 -0.00018776132 -0.00030143379 0.0011651495 0.0021778143 0.0023224948 -0.0005930794 3.358448e-05 0.002612319 -0.0048197564 -0.0012276715 -0.0034987126 0.0027215916 -0.0013572226 0.0023679999 0.0015232705 -0.0019972925
有 -0.00043791454 -0.00073789136 0.0012207221 0.0011271443 -0.0019429716 0.0012955832 -0.0018474477 0.0020642977 0.0035705976 -0.00208804 -0.0023454148 -0.00020926504 0.0007172937 0.001493906 -0.0038222808 0.005031381 0.00046400446 0.0038957838 0.002746746 0.0036672212 0.0011052322 0.00039465516 -0.0041432404 0.005354539 0.0032484771 0.00041510546 0.003990931 0.0038971817 0.0016192325 0.0025134115 0.0011571386 -0.0009963771 -0.0029428676 -0.0005526402 -0.0034451387 -0.00010533485 -0.0049675237 -0.0028494324 0.0028747306 -0.0016416747 0.0011944643 0.00064211135 0.000692778 0.0032846902 0.0028927792 -0.0009530795 -0.0040940642 0.0031458298 0.0011270392 0.002915235 0.00020522866 0.003434007 -0.0010435077 0.0004439905 0.0017035436 0.00110547 0.0024611645 0.002550981 -0.00039617944 0.001955299 -0.0036032964 -0.0023986993 0.0016727076 0.0039695064 0.0005448612 -0.00032048704 0.0032421625 -0.0011215325 0.0012553015 0.0029263964 0.003370647 -0.003096154 0.00100624 -0.0035100118 0.0032209575 0.00045670418 0.0028015818 -0.003532541 0.0019620513 -0.0004026594 0.001848651 -0.0016719578 0.0012537006 -0.000570719 -0.0014616766 0.00022428848 -0.0016645049 0.0001056593 0.0018476128 -0.0021390426 0.002359424 -0.0014193082 0.0018132284 0.0013635886 0.0047284686 -0.00023213109 -0.00096940476 -0.0018013415 -0.0018740124 -0.0027190566 0.002237978 0.0008784356 -0.00082154054 0.0009114164 0.004319149 0.001878799 0.0009522569 0.00043874676 0.0006958714 0.001200628 0.004669475 -0.0038927656 0.0036223219 0.0010596707 5.125513e-05 0.0029419789 -6.9320163e-06 0.0034813834 -0.0027293789 -0.0027721536 -0.00071182614 -0.0010301843 -0.00028734375 0.0032738748 0.0030460095 0.0019461167 -0.00022506491 0.0035217882
想 0.0004183546 -0.0012387319 0.0028976079 0.0011105818 0.00025224738 -0.0023406248 0.0031568494 0.0030476397 0.00070642435 -0.0019815199 0.0024945603 0.002043258 -0.00017898103 0.0019179871 -0.0027899635 -0.0017373607 0.0021001596 0.002144155 -0.0025626107 0.0003878526 -0.0020024474 -0.0037659425 -0.004280888 -0.0015814288 0.0022824428 -0.0021658628 0.002208177 0.00074755464 -0.003587942 0.00074041676 -0.0020016304 0.0023044574 -0.003146693 0.0011754357 -0.004163774 -0.0002164037 -0.0026217022 0.0029034086 -0.0015487013 0.00028742378 -0.00014925963 0.0040668393 0.0034632047 0.00033278967 -0.0031958933 0.003267617 -0.002243239 -0.0038627058 0.00065974495 -0.0016324737 0.0042340495 0.00040968528 -0.0025018607 -0.0029318663 0.0014530672 0.0007085209 -0.0039231516 0.0052268775 0.0011640104 0.0025235463 -0.001593543 -0.0014241354 0.0038919135 -0.0021731672 -0.000763232 -0.0034862433 0.0011433857 0.00094097975 -0.0028984593 -0.0031805777 0.001343899 0.0037672962 0.0030363977 -0.0031101282 -0.00040620854 0.001499319 -0.002537475 0.0018727707 -0.00014074573 0.002673522 0.0037828323 -0.0015898786 0.0019228305 -0.0026007635 -0.0023779776 0.002160088 -0.0033944354 -0.002682957 0.0032070957 0.0010627127 0.0006782672 0.0032362698 -0.0018961707 0.0015361398 0.0041498076 0.0018323354 0.0031764566 0.00017879232 0.0020421548 -0.00079715817 -0.0009393034 0.0021454338 0.0027545984 -0.0041562873 0.002274818 -0.00081464095 0.0040867366 0.0040401877 0.0025992065 -0.0003780392 0.0026236863 -0.0010865168 -0.0016544814 -0.0010141776 -0.00185933 0.00087053934 -0.001627045 0.0048274514 0.0035428344 0.0013595019 0.00046988766 -0.001091439 -0.0029517512 0.0030919304 0.0024500377 0.0007160131 0.0005966794 -0.0028792329
吗 0.004333832 0.00088183145 0.0023125554 0.0018648687 -0.0021047355 0.0028292132 -0.0034325388 -0.0026683742 0.00038751934 0.0033238328 -0.003469088 0.0013503178 0.0014781188 -0.0017796577 -0.003377265 -0.0019365916 -0.0025389974 0.00039477387 -0.0013387945 0.004262469 -0.00088734075 -0.0034925018 -0.000899237 0.0022070357 -0.0008522603 0.0019709938 -0.0012802307 -0.0010133858 -0.0020166163 -2.751587e-06 0.0033604342 0.0039500236 0.0009775999 -0.0022658857 -0.0009347546 0.0013764721 -0.0012469849 0.0019361789 -0.004788466 0.0006634522 0.0015468308 -0.00096330297 -0.0041118315 -0.00071696826 -0.001411212 0.0032216967 -0.0015273909 -0.0017142034 0.0034775853 0.0039428687 3.1724256e-05 -0.0018454768 0.0039776075 -7.5434335e-05 -0.0015270046 -0.0003622592 0.0012098058 0.004597169 -0.0036628908 -0.0037545925 0.00039910967 -0.00350478 0.0030693745 0.0030524614 -0.0013816329 -0.003933622 -0.001531073 0.0020234012 0.0006505387 -2.8349968e-05 -0.0007302981 -0.0016427633 0.0021848297 -0.0021650507 0.0038623053 -0.00027231863 -0.00088207005 0.0020282294 0.0020108072 -0.0016373086 -0.0012138507 -0.0017754151 0.0022378683 0.00274089 0.003207833 0.0012293945 -0.002368172 -0.0007470773 0.0051435153 0.003700419 0.00010452256 0.0034322788 -0.004633039 -0.0015540041 -0.0015340443 -0.0017883324 -0.0021316665 0.0013520829 -0.00063665264 0.0017799542 0.0019401583 0.002447608 -0.0009102274 -0.0023321107 0.0012741771 0.0036308279 -0.00064197945 0.0023256992 -0.0012730357 -0.000583345 0.00056089397 0.0010976213 0.0025404256 0.0013351679 -0.0026703146 0.0033944915 0.0011188382 0.0029581364 0.0013247071 0.00055000745 0.0008049564 -0.00069228816 -0.0032609375 0.0027949158 0.0027661459 -0.0037635972 0.002092139 -0.0027538452
有没有 -0.001807107 0.0011281177 0.0031957277 -0.0032003631 0.0027885356 0.0012450699 -6.316502e-05 0.0031270087 -0.00064544904 0.0037873317 0.002696251 -0.0023075894 0.00014110416 0.003703762 0.00022496833 0.0015117255 0.0009602103 0.0019774053 -0.0041747005 0.0036577068 0.0013055445 0.0016269315 0.0023219958 0.002112106 0.0011837584 0.0023379892 0.0005611801 0.0040092785 -0.0009032789 0.0048008785 -4.965877e-05 -0.00096307084 0.0010970295 0.0029839631 -0.0028554318 -0.00017497917 0.002622964 0.0036834048 -0.00063145475 -0.0032351848 0.0008832567 0.0018656526 -0.0038666206 0.0028751297 0.0037394278 0.0032975909 -0.002048745 -0.0016634226 0.0032626567 -0.0011973316 -0.0035153988 -0.0024074474 -0.0014812766 -0.0023277127 -0.001069669 0.0011253166 -0.0011179273 0.0031740647 0.0029555687 0.0020653314 0.0025285787 -0.0027889723 -0.0010602499 0.001468648 -0.0036800774 -0.0020299223 -0.0008079731 -0.002700568 -0.002257096 -0.0020608106 0.00029292225 -0.0018346217 -0.0037966073 -0.0016614439 -0.0034958178 -0.0005387066 0.00027457913 -0.0027029307 0.0015412702 -0.0019143566 5.569058e-06 0.00092100917 0.0017466107 0.00031618355 0.00062432786 0.001527236 -0.004379613 0.00043932 0.0009681025 -0.00087236834 -0.0011822822 -0.00092543266 0.0016756811 -0.0016258573 -0.0003744564 0.0002186304 0.004869423 -0.0005043174 0.0023951267 -0.00026230974 -0.0023287956 -0.0031855803 -0.0016692879 -0.0023899707 0.0037363234 0.00064234145 0.0037678871 0.0034498305 0.0011355231 0.0015608345 0.0016805928 -0.00046878183 0.0029929557 -0.00024903103 -0.0031348267 -0.0022970822 0.00062678836 0.0021595808 -0.0014834332 -0.003864514 0.0018631363 -0.0015379906 -0.0039621275 -0.00031219725 -0.0005393131 0.0011970452 0.00023492907 -0.00029783984
可以 0.00018560153 -0.0002947829 0.0035059643 0.0034251972 -0.0033581206 0.002711027 -0.0016935027 0.0013111006 0.0046996064 -0.001282658 -0.0007893889 -0.0004323323 -0.0045573143 0.0039764326 -0.00040885774 0.0007208264 0.0026033947 0.0038721957 4.655476e-05 0.0011106922 0.003990731 -0.0006564449 -0.0007049278 0.0033011106 0.0041157277 0.00082097884 0.0031076255 0.0017916036 0.0022495664 -0.0023434062 0.0035588196 0.0023060734 4.443819e-05 -0.0032540683 -0.0054158485 0.0023751466 0.0015569407 0.00061716186 0.00029492172 -0.0006295144 -0.0005998196 0.0023647451 -0.0016525645 0.004373732 -0.001216637 -0.0007342373 -0.0010331972 -0.0032852169 -0.0012696489 0.0039262245 -0.00040095876 0.0018654187 -0.0026410476 -0.002324401 -0.0019567637 0.0033770716 0.0013867639 0.0007174136 -0.0032647022 -0.0014257199 0.001871631 -0.003983907 -0.00033797295 -0.0023860943 -0.0015298392 -7.104392e-05 -0.0014869932 -0.00086860405 0.00075896084 0.0028107546 -0.0029477654 -0.00052728184 -0.0014139023 -0.000898558 3.8097278e-05 -0.0020964649 -0.0027902513 -0.0018898513 0.00036133747 0.001648882 0.00076775753 -0.00039095644 0.005135006 -0.004153565 -0.0021701774 0.0018496494 -0.0035819435 -0.0027511034 0.0025331192 -0.0002053592 -0.00011244037 0.0014319341 -0.0010241687 -0.0025954582 -5.696674e-05 -0.00269375 0.002408683 0.0011841807 0.0035097913 0.0007337801 -0.0017800183 -0.0029899348 0.004439158 4.641222e-05 -0.0024611375 0.0025426082 -0.0028342574 -6.285918e-05 0.00020877592 -0.002622546 0.0016666994 -0.003556083 0.001342602 -0.002881301 0.00039549975 0.0011609771 0.0023549509 0.004663213 -0.0014366487 0.00083302124 -0.0015907331 -0.0028194934 0.002935114 -0.0021450522 -0.0017521614 -0.0032846716 0.0025127763 -0.0029797368
， 0.0009288762 -0.0025753917 0.002963714 -0.00024758352 -0.00023964519 -0.0035755965 -0.00032466778 -0.0031534575 -0.0026288948 -0.00085524947 -0.0016668433 -0.0041816053 -0.0031075503 0.001230215 -0.0027935589 0.0048031043 8.598542e-05 0.002677646 -0.002284972 0.0029880025 -0.0014994666 -0.0025591569 -0.0021943175 0.00024508606 0.00091678184 -0.0040522064 0.0041056676 0.0015905988 -0.0034284098 0.0048170383 0.001074728 0.0009355666 0.0029468357 -0.0020927214 -0.0061616325 -0.0043479865 -0.0022114771 0.00042726274 0.0011944682 -4.4455785e-05 -0.0019003002 -0.0020175225 -0.000800298 0.0044440874 -0.0006387387 -0.0026889658 -0.0043061418 0.0020257095 -0.0014803042 -0.00030903742 0.0018469889 0.0016521533 0.0033761088 -0.0044143703 -0.0043831896 0.003446357 0.0005222547 0.00306708 -0.0013949248 0.0027037112 -0.0029946638 0.002000641 -0.0032443989 0.003246768 -0.0035809297 -0.0002553648 0.0047391164 0.0015479595 0.0026761794 0.0033456832 -8.935203e-05 -0.0037416543 -0.0006838653 -0.002936363 -0.0015980685 0.00079279253 0.0028627904 0.0002965852 -0.0023455282 -0.00031122164 0.0039163553 0.0025427786 0.0057617826 0.0015814241 0.0029931779 -9.7309385e-05 -0.0023108702 0.0023926552 0.0062054247 0.00095288793 -0.0017675832 0.00015096786 -0.0030828065 -0.0021132969 0.0024464338 -0.0010218062 0.005651891 -0.0037456816 0.0020854862 -0.0004148822 -0.0040939557 0.0018570893 0.005199843 -0.0012483081 0.0042053754 0.0001586431 0.0002507577 -0.002549368 0.001867099 -0.00050054287 0.003093066 -0.0005219096 0.002560297 0.0014748033 0.0013694289 -0.0007924914 -0.0035712589 0.006275981 0.0006484114 0.0006615301 -0.004025118 -0.0012475189 0.0007212216 0.0027863195 -0.0025306153 -0.0005350083 -0.0021300698 -0.0019450691
了 0.0028257256 0.0023809918 -0.0011241718 -0.00060290797 0.003683823 0.0039939946 0.0025146198 -0.00033839265 0.0037238493 0.0037519115 -0.00026756764 0.0015544536 -0.002492266 -0.001292652 -0.0045692935 0.0044684666 0.0038568135 0.0014051019 0.0013641506 0.0013578556 0.0019101369 -0.00026222487 -0.0024563936 3.2579464e-05 0.00024704455 -0.0027289602 0.001203009 0.004138536 -0.003220128 0.00045898417 0.0017234845 0.0027892466 0.0022391402 0.0006834575 -0.0013013097 -0.0042466815 -0.0032044968 -0.000639208 -0.00021739274 0.002426485 -0.003323985 0.0012160128 0.0015702742 -0.0007222 0.0011774399 0.0020710293 0.0014900345 0.00084280415 0.0040010437 -0.0012774544 0.0026139964 -0.00062011485 0.0016084135 -0.0034508395 0.00094852503 0.0028176138 -0.0015791237 -0.0015818916 0.0028105779 0.0011591698 -0.004865541 -0.004109107 -0.00044746284 0.0025744971 -0.0008060612 0.0012944054 0.002078784 -0.0009450411 -0.0012047132 0.0012791752 0.0041673947 0.0038850438 0.0032413665 -4.5830177e-05 0.0020092358 0.003528184 -0.0026683444 0.000762463 0.0039350507 0.0010056094 0.003581353 0.0014462043 0.004244091 0.0018377997 0.0026590836 -0.002363493 -0.0006738304 0.0034709105 0.002202748 -0.0022498404 -0.0011050206 -0.0011735936 -0.004880187 -0.0007037273 0.00029851752 0.0014283215 0.0053554797 -0.0009101296 -0.0003244503 -0.0041447794 0.0010018261 -0.0014490156 0.0028939508 -0.0013352261 0.0024731262 0.0025783258 -0.0033683567 -0.00031105583 0.0030264882 -0.003644541 0.003966729 -0.0005466121 0.003961922 0.0008116503 0.0018029183 0.0015910851 0.003908796 0.0034894415 -0.00023032063 -0.0027640031 -0.0027184042 -0.0027034672 0.0011405613 0.0016013817 0.00049189874 -0.00047966445 0.0034412672 0.001374222
明天 -0.00088515267 0.00043957582 -0.002422059 0.00042894782 0.0019240698 -0.0016376881 -0.0021936651 -0.0030841972 0.0017589867 -0.0036875007 0.0016539139 -0.0024555633 -0.0029506555 0.0042600436 0.0018757642 -0.00019788783 0.0029861394 0.0013007611 -0.0026557157 0.0046260897 0.0019694031 -0.0027874468 0.0020004555 0.0047305906 0.0048596645 0.00022775315 0.002433317 -0.0008484032 -0.0008706493 0.005447635 -0.0013684542 -0.0031221772 -0.001072549 -0.002060407 -0.00018325822 -0.0044242335 0.0007492193 0.0026454194 0.002255559 -0.0025069222 0.0031341857 0.0027188421 -0.0017908695 0.0040740883 -0.0034392558 0.0010345336 -0.002408054 0.0019414929 -0.00040310802 -0.0014058752 0.00022017465 0.004716569 0.0033432925 -0.0006887212 -0.0038113287 1.049488e-05 -0.0023359926 0.0015250369 0.0016099709 0.0010018983 0.0017348588 -0.0013239343 -0.0007947435 0.0039480184 -0.003254988 -0.005989649 0.002577767 0.002889172 0.0034089843 0.0036023618 -0.0017899312 0.0038970544 0.0020208654 0.00016981644 -0.00039134198 0.0011699578 0.0025476005 0.0010717035 0.0025583913 0.001536802 0.0033100706 0.00022799455 -0.0016669686 0.0020711962 0.0041886936 0.0017052693 -0.0013664751 -0.0010250042 0.0026176071 0.0023893258 -0.0050418815 0.0042219656 0.0022571532 -0.0042264466 -0.00012971912 0.001916724 -0.0013868642 0.00012019363 -0.00060547784 0.002337801 -0.0019988525 0.0035932322 0.004024631 -0.0003485671 -0.00011783736 0.0033675672 0.0034127967 -0.0018981685 -0.00011522753 -0.00023706997 0.0039915117 8.765757e-06 -0.0023381815 -0.0026633642 0.0012224106 0.00066767813 -0.0034456442 0.003392253 -0.00039616678 -0.00035415334 -0.0037982184 0.0028670449 0.0002609292 0.0038651112 0.0021642358 0.0038142358 0.003355488 -0.00039470775
一下 -0.0014231331 0.002954471 -0.00214539 -0.00038304031 0.0032849368 0.0024510752 -0.0020470296 0.001819056 -0.002868008 -0.00013225654 -0.0034768935 0.00029695075 8.5075444e-05 0.0018316082 -0.00021019416 0.0040593212 0.002258412 -0.0007455611 0.0024986698 0.0035469444 0.00013258024 -0.00020061285 -0.002405801 -0.0015778439 0.0028719073 -0.0004855789 -0.0016954443 0.005196548 0.002531524 -0.00030206118 -0.0023561427 -0.0004349295 0.0011482117 0.0033105738 0.0017404769 0.0011006139 -0.0015676619 0.00032000768 -0.00057921495 0.003794812 0.0016330396 0.000890081 -0.0036840264 -0.0025282402 0.0010530928 0.0037932077 -0.0008577714 0.0028829263 0.0021766229 -0.0012140254 -0.003214949 0.0012635201 0.0015693738 -0.0015134239 0.0017017592 0.0038570624 -7.235543e-05 0.005230748 -0.002342421 0.0011092812 0.00011188846 -0.0018603825 -0.00060796627 -0.001149673 -0.0020427047 -0.004263928 0.00097341835 0.004029029 0.0017023811 0.0012554436 0.0018333723 0.00397953 -0.0012417587 -0.0038802673 0.0020542142 -0.0024914069 -0.00107223 -0.00031304825 0.0026299327 0.0020420738 0.00454482 -0.0008949335 0.00025080764 -0.0033349737 0.0045206808 -0.0014016526 -0.004288517 0.0026333092 0.0012881173 -0.002269772 -0.004531759 0.004307832 0.0015930812 -0.0011387337 0.0044675246 -0.0028969382 -0.0018003897 -0.0004516966 -0.00072194677 -0.0042597167 0.000537357 -0.003851434 0.00056328566 -0.0040581333 0.0011335952 0.0009489255 0.0037604903 0.001186274 0.0021498974 -0.00051541004 0.002008252 -0.0020024749 -0.0016512182 -0.0033622945 0.0004336073 -0.0033507932 -0.0023947032 0.0034319179 0.0008521581 -0.0008248876 -0.00057476014 0.0017341605 0.0027807525 0.0038734563 0.002950055 0.0015969721 0.001916414 -0.0021370493
怎么 0.0049061775 0.004148205 0.0013397413 0.0026236249 9.3471346e-05 0.0010308636 -0.00064708164 -0.0018962341 0.0013536524 -0.0026447591 0.0027133469 -0.0022251012 0.00011357973 -0.00034440818 -0.0024532003 -0.0011609815 -0.0009337733 -0.0018559223 -0.002334464 -0.002760637 -0.0026767743 0.00071759324 -0.0022830686 0.0027901644 0.0018161872 -0.00025980786 0.002485306 -0.00048336867 0.0010392559 -0.00090290676 0.0033899273 0.0024583295 0.0033109975 -0.0023509334 -0.0038562524 0.002004816 -0.0009807295 0.00083224144 -0.0027095547 0.0036796636 -0.0003967063 -0.00081543176 -0.0020162936 0.00052516226 -0.0014226495 -0.003051259 -0.0020130167 -0.0004578531 0.0023865548 -0.00028433013 0.0011347091 0.0017817174 -0.00017255619 -0.0032334984 0.0034866421 0.0026182183 -0.0027376972 0.005058065 -0.0036724794 -0.0038246417 -0.0024657955 0.0020325638 0.0016268353 0.0038942427 0.0015590118 0.00024882998 0.00393532 -0.002608125 0.00086323125 -0.0019258145 -0.0031493127 -0.002386762 -0.0018887025 -0.001790952 0.0015953009 -0.002228701 -0.002114872 -0.0021820662 0.0015966593 0.0036723136 0.0012226212 0.0010345725 0.0034190745 0.0001611703 0.0016278857 -0.00091974373 -0.00053816644 0.0008167832 0.0032059804 0.0021092526 0.0005230104 0.0011200388 0.0013993774 -0.0028493563 0.0002928291 0.00079278427 0.0020372295 0.00069801783 0.0027787664 -0.00033440572 -0.0020637072 -0.0007455191 0.003072697 0.0023021258 0.00065542484 -0.0032188587 -0.002061511 8.8557375e-05 -0.003926192 0.0037266864 -0.0032060214 -0.0037134541 0.00065787527 -0.003303895 0.003836496 0.0039751083 0.0021101125 0.0054004 -0.0026434038 0.00075486547 0.00028712195 -0.0033300335 -0.0034348948 -0.0019072222 0.0023920909 -0.0007687963 -0.00039310224 0.0030548975
预定 0.0012712798 -0.0008010173 0.0023690206 -0.0031389291 -0.0015986342 -0.0012299492 -0.0032413818 -0.00013127677 0.0013512872 0.0028669403 0.00028257098 -5.9102385e-05 0.0019692197 0.0009765915 0.002387542 0.00444608 -0.0023792812 0.0009155657 0.0022481487 0.0035401455 -0.0012132083 -0.003418159 -0.0010150998 0.0050353366 0.0009497315 -0.0017810443 0.0025767873 -0.0017284896 -0.0031132912 0.002383192 0.0029345616 0.0006130233 0.0026451235 -0.0032674852 -0.004080406 -0.0025926079 0.0013972223 -0.0013173964 -0.001062104 -0.0005740006 0.0031990057 -0.0003954483 -0.0010998279 0.0039423783 0.0005814825 0.0015456523 0.00046746238 0.0001007864 -0.00088407705 -0.0032736901 0.0015815187 0.003254686 0.0014717375 -4.9130256e-05 -0.0011085783 -0.0037983942 -1.7243385e-05 -0.0018491356 -0.0037217075 -0.0015717105 -0.001505788 -0.0013048863 -0.0025951257 0.0022550637 0.00052845693 0.0016160095 0.00060017087 0.0010023413 0.0044101025 0.001496325 -0.0012981909 0.00096458977 -0.0018022967 0.0002584868 0.001291005 0.00040371166 -0.0034165457 0.0013327537 0.0013811025 -0.0023690667 0.0023926003 0.0027417447 0.004881247 -0.004075783 -0.002774505 -0.0032435807 -0.00057410885 0.00034893028 4.067555e-06 -0.002985601 -0.0013811184 0.0037849352 -0.003640079 0.0009879662 0.0025006745 -0.0028564734 0.0030848947 0.00018757708 0.0003630563 -0.0005978911 -0.002088558 -0.0012922909 0.004282427 -0.0039957645 -0.0012803265 -0.0019572063 -0.002502488 -0.0036060829 0.002109589 0.002680931 -0.0018297571 -0.0014381299 -0.0034767517 -0.0030987293 -0.0014236482 0.0014360338 -0.0022921187 0.0019935612 0.00079433713 0.001512527 0.00031846724 -0.0028177844 -0.0018141143 0.0031698712 0.0018060033 -0.0024299934 0.0016129542 -0.0018966931
在 0.0021334698 0.001375946 -0.0011906202 0.0011757126 0.0014353673 -0.001727854 0.0017720083 -0.00028790368 -0.0019833255 6.927573e-05 0.0020689915 0.0029940626 0.0020894157 0.0038404358 -0.0030817764 0.0049512098 0.0041932166 0.0018602842 -0.0011005222 0.002416351 0.0032932698 7.2670635e-05 -0.0043485276 0.0023159964 0.0006569983 0.0015154945 0.0021086752 0.0047231824 -0.0039433595 0.002793277 0.0019590233 0.0019092065 -0.0005773928 -0.003921356 -0.0021439234 0.002875182 -0.0048992126 0.0034668397 0.00018351385 -0.0005549883 0.0014488471 0.00024585062 0.0033301983 -0.00028527965 -8.212819e-05 0.0005378108 0.0029012035 -0.0037397514 0.00087312615 0.0015001724 0.00089048006 -0.0021363907 0.00040730715 -0.0012023727 -0.001495358 -0.0018786569 0.0021812874 0.0010150021 -0.003910754 0.0032996535 0.0013366853 -0.00314294 0.0028458901 0.0038346096 0.002011176 -0.00090365054 0.0028945801 0.003697558 0.0014237169 -0.0022473373 0.0035723809 0.0011436433 -0.0027724116 0.002311982 -0.0034033677 -0.001167324 -0.0032128242 -0.0043937606 0.001940761 -0.0030907772 0.001775014 0.0009454037 -0.002264885 -0.0037656934 0.0008182499 0.0007823946 0.0011640891 -9.213009e-05 0.0002313288 0.0028520192 -0.004005076 0.0041832896 0.0018474126 -0.0023630434 -0.0015662168 0.0010323001 0.0011385995 0.0016204362 -0.0033246365 0.001121022 -0.0026794877 -0.0004985138 0.004826993 -0.0032476413 -3.799856e-05 0.004528355 -0.0014749005 -0.0016118756 -0.0027707804 0.0023789045 0.0042786705 -0.0004496881 -0.0029435107 -0.00095166225 0.00068421115 0.002333629 0.0011745429 -0.0013756074 0.00045891816 0.0010322594 0.0006993872 0.0023721242 -0.003885234 0.0014932816 0.000117002855 0.00060435454 -0.0012440758 -0.0015685988
附近 -0.0007553598 0.0026571578 -0.0030192882 -0.0028976307 -0.0005725525 -0.002968845 -0.003881092 -0.0022880004 -0.00068897416 0.0006635357 0.0019454194 0.0033687013 -0.0034874172 -0.0005546618 0.0021840865 0.004304194 -0.0010668018 0.0017332135 -0.000745048 -0.0010218946 0.0021400969 -0.0025041 0.0031173504 0.0036889266 0.0025550702 -0.00040757266 -0.00012529036 -0.0023814389 0.0014305189 -0.0015532293 0.004229701 -0.001095778 -0.0032266472 -0.000352464 0.0013182592 -0.0036476513 0.0021872714 0.00025033025 0.0025644565 0.0034250675 0.0022796628 0.00091381604 -0.0024468943 0.00444142 -0.0025991292 0.003301524 0.0031372523 0.0015484637 0.003765241 -0.0010089866 -0.0009827687 0.00087886147 -0.0034622378 0.0011390176 -0.0025228937 -0.0038487704 -0.0026735198 -0.00048765398 0.00091385853 -0.0022168513 -0.0042947135 -0.0019503381 0.0018944123 0.001481991 -0.0008841411 -0.0021523163 0.001655152 0.0028363203 -0.0019149927 0.0018897805 0.0006785932 -0.0026455647 -0.0033075304 0.0019441912 0.0029757323 0.0004097974 0.003183821 -0.00045705345 0.0012139148 0.00063566485 0.004228736 -0.002093409 -0.0014252741 -0.0036920109 0.00054197235 0.000104501676 0.0012058775 0.0029401865 0.003813952 0.0010090775 0.0010269477 -0.002692631 -0.0043827863 -0.0041633663 0.0028982006 0.0021339427 0.0044308077 -0.0009779474 -0.0024919794 0.0013554036 0.00012834294 -0.002435519 0.00016321272 0.0029733547 -0.0025073478 0.0016256223 -0.0010230725 0.0013910978 -3.5584788e-05 -0.0023878857 -0.0022482064 0.00031049227 0.00032397863 -0.0011838508 0.0015905364 -0.00059628417 -0.0025876819 -0.0012633173 -0.0009868147 -0.0021007855 0.0009516538 0.001518262 7.9397054e-05 0.0035063897 0.0008847408 0.0016783226 0.00044178637 0.0016153756
通知 0.0011436433 -0.0035331263 0.003960761 -0.0034034492 -0.0032951003 -0.0037345423 0.00018300873 -0.0026542551 0.000344855 -0.003408062 -0.000599256 -0.0007099206 -0.0028610846 -0.0005428618 -0.00093168207 0.0013052261 0.0025230693 -0.00057620084 0.0035496936 -0.0021822804 -0.0011309284 -0.0039455392 -0.0009855768 0.0016603734 0.00078931596 0.0009927397 -0.0025278511 0.0045211706 0.0029592402 0.002360566 0.002272685 -0.0015294142 -0.0037474826 0.00040134415 -0.0044019283 1.112719e-06 5.5824466e-06 0.001175677 -0.0019726937 0.0016506426 -0.00056456897 0.003523475 -0.0021466762 0.0004712556 -0.0033910521 -0.0021015955 -0.0044815764 -0.004009807 0.004349403 -0.0019951044 0.00281158 -0.0014959801 0.003103967 -0.0031420332 0.002141443 -0.0036303902 -0.0038898657 0.004092469 -0.0019188066 0.0032580534 -0.0024715087 0.00096509344 -0.0020257183 0.00068748876 -0.004339962 -0.0035217197 0.0028586064 0.001822546 -0.0013330878 -0.0036241764 -0.0026698457 -0.0011279386 -0.0025664223 -3.264325e-05 -0.00012311644 -0.0031700989 -0.0035592227 -0.0012541208 0.0017077029 0.0038220063 -0.0013967082 -0.001833931 0.0003428035 -0.0038961805 0.0043354034 0.002162483 -0.0010719567 0.0020968223 0.0038400744 -0.00087781064 -0.0021560227 0.00024779342 -0.002117486 -0.00404938 0.0045450097 0.0026809322 0.0025716585 -0.0025397611 0.0012899115 0.0010040473 -0.002510366 0.003459101 0.00092572055 -0.0003091253 0.0013905416 0.0016948048 0.0013391433 0.002252581 0.001917205 0.0010852594 0.00021787279 0.0003543555 0.00020867828 -0.002666489 -0.0019990029 -0.0010034146 0.0030413652 -0.0016387914 0.0006539071 0.0034888317 0.00079206395 -0.00018818869 0.0029708038 0.0037859117 0.0010123418 -0.002544185 -0.002055371 -0.0033944102
能 0.0049597733 0.0038850836 -0.0013205337 -0.0001734618 -0.0032617685 -0.0019032568 -0.0020683887 -0.00296671 -0.0020667012 0.0006749883 -0.00035929983 0.0019515832 -0.0024838739 0.003771061 -0.0036368554 0.0008933402 -0.0028454172 -0.00024623694 -0.0032380081 0.003698927 0.0028953159 0.0032234818 -0.0023160805 0.0050839563 -0.002077607 5.490947e-06 8.486822e-05 -9.720404e-05 0.0029729295 -0.0008679706 0.0037835988 -0.0013738761 0.00092367956 0.00091850053 -0.0052415202 0.00028748583 -0.0010169494 -0.0036028891 0.0015469061 0.0020765997 -0.0037248416 -0.0031375373 -0.0008838189 -0.0016967625 0.003910605 -0.0007089244 -0.0016585039 0.0027781576 -0.002505467 0.0020114877 -0.0003431551 -0.0026876314 -0.0010039612 -0.002903079 0.0016819118 0.0030016361 -0.002670693 0.003921583 0.001914261 -0.0003894071 -0.00041721834 0.0026187315 0.0039471807 -0.0016778646 0.0018445865 -0.0008717173 0.0051103993 -0.0026925842 0.0012861781 -0.0017684223 -0.0019873488 0.002152409 0.0012896853 0.00031099905 -0.0016062848 0.002061475 -0.0023019083 -0.0042166994 0.002382479 -0.0032364586 -0.0007194353 0.0028037734 0.004167777 -0.0013799166 0.0016262949 -0.0033999095 -0.0007088506 -0.0010005229 0.0048414245 0.0026801268 -0.004025811 0.004000762 0.001918546 -0.004947928 -0.0014224307 0.0010101851 0.004472899 0.001718581 0.0009637107 -0.0020460135 0.0013198588 0.0012180933 0.005256572 0.0013900616 -0.0019901476 -0.0006651647 0.0030345498 -0.0013207155 -0.0003512537 -0.00044342707 -0.00081006874 -0.0037766686 -2.0756144e-05 -9.853216e-05 0.0036047262 0.0025315797 -0.0025807286 0.0025520558 0.0008039876 0.0018512671 0.00071335497 0.00057148625 0.0015553945 -0.00064109795 0.0012071012 -0.0034540307 -0.00049000303 -0.001348765
不能 -0.0019739163 -0.0024001065 0.0039991993 0.0034656262 -0.00040447916 -0.0036082922 0.0037309749 0.0006793443 0.004625696 0.0029636628 0.0017798534 0.0012171279 -7.0620576e-05 0.00042751065 0.0029406205 0.0029337632 -0.00045637655 -0.0008651659 -0.003268909 -0.0017904264 -0.0016958095 0.0027947715 0.000101181875 0.0022236144 0.0036347113 0.0011337291 -0.0023620685 0.002204567 0.0025214667 0.0007264756 -0.0028666959 -0.00305504 0.0011999996 -0.0010490434 -0.0033415973 -0.00062723586 -0.002496722 -0.0011699155 0.0016013324 -0.0012457119 0.001554517 0.002442064 -0.0017024844 0.0024836152 0.000968542 0.00087459374 0.0013622405 0.0010943401 -0.00019099597 0.0035105636 0.00032054167 0.0043447018 0.0014814817 -0.0029691702 -0.00077007257 -0.0035716742 -1.2788053e-05 0.002130117 -0.00054046954 0.003084956 -0.0025289936 -0.0030838056 0.0030342066 0.004170671 -0.0051686224 -0.0044455715 0.002351295 -0.0001744682 -0.0006658469 0.002593015 0.0036475481 -0.0019225908 0.0024270369 0.0027996458 -0.0016429871 -0.0013627051 0.0017674699 -0.0007995103 0.003090899 0.000684001 0.002866618 -0.0021743672 0.00085163343 -0.001070865 -0.0008965835 0.0019343962 -0.0025438303 -0.0030149412 0.000282472 -0.00031353586 -0.0029194052 0.0008943317 0.0009356292 0.0014127356 0.0031169232 0.00038966892 -0.0016820903 -0.0040199375 0.0031419294 -0.0014458825 -0.004216754 0.0020950302 0.0033052915 0.0010126035 0.0023623242 0.004309093 0.0005973918 0.0030287593 0.0015977073 -0.0035252299 -0.001259731 -0.0037122327 0.0007668525 0.00026252144 0.0011404832 -0.0024872792 0.0029980107 0.004563293 -0.0011958701 -0.00062447804 -0.0042190026 0.0034602627 0.0017170504 0.0045520314 -0.0027004636 -0.0006602312 0.0017581981 0.0010534051
哪里 -0.0018058292 0.003432862 0.0015748902 0.002929207 -0.001233775 0.003032837 -0.00060837506 -0.0022154963 0.0005406982 0.00023109303 0.0038337419 -0.004160214 0.0022103954 9.977457e-06 -0.0039087073 0.0016815634 0.0019048577 0.00035368957 -0.0004759446 0.0041733785 0.001971033 -0.0019087391 -0.002115078 0.002579833 0.0038424837 -0.0016268087 -0.0032056659 0.0015825869 -0.0025564677 0.002829589 0.00062379567 -0.0010799271 0.0024565507 -0.0009880856 0.00083381677 -0.0018896668 -0.0009902064 -0.00012310896 0.0024516485 0.0012765463 -0.002875231 -0.0037092303 -0.0016210639 -0.0012972052 -0.0027951994 0.0013559618 0.0010558773 0.0015219908 0.0029880842 -0.0021999546 0.0025013243 -0.0016013609 -0.0022317013 -0.0043186597 0.0023098497 0.0026337423 0.00071785843 0.003918436 0.0008229637 0.0023628364 -0.004364668 0.0021600665 -0.0034231667 0.0018865399 0.00026076208 -0.004036619 -0.0026466046 -0.0015240795 6.932131e-05 -0.0034243246 0.00079238013 7.548652e-05 0.0008694123 0.00013858518 0.002844264 0.003420068 0.002204483 -0.0037161985 -0.00023825552 -0.0017041018 -0.0022145405 0.003162515 0.0004853781 0.00025509382 0.0036879047 0.0028660628 0.00014011344 0.00085735 0.0033653674 0.0038125268 -0.0002274801 0.003085746 -0.0025648628 0.0029301373 0.0016412269 0.00016760519 -0.0002985414 9.223646e-06 -0.0038145357 0.0028667352 -0.0035985701 -0.0003945344 0.0012176366 -0.0024100349 -0.0029919117 -0.00081686676 -0.002608185 0.00043612713 -0.00271016 0.0022970345 -0.0015554338 -0.0036546031 0.00096595805 0.00024014291 -0.0004294054 -0.0009533666 -0.0021947396 0.0028993865 -0.0035896637 -0.0015559254 0.000781506 -0.003030741 0.000743072 0.002198226 0.0013845577 0.0017638516 -0.0014034383 0.0010553005
预约 0.00014172004 0.003911919 0.0036144096 0.00010973991 0.00017560269 -0.0014140293 0.0014779944 -0.0027990586 0.003702621 0.0029077078 0.0020218648 -0.00050345575 -0.0038401645 6.963287e-05 -0.0042250743 0.001865415 0.0015159149 0.00017742552 -0.0039964966 -0.00012864737 -0.0023108167 0.0007608362 -0.00072013354 0.0014694224 0.001767875 -0.003294246 0.0029737 0.0015527598 0.00040845622 0.0019834177 -0.0004302288 0.00264378 0.00010267203 -0.002728961 0.0011989868 0.00029804022 -0.0051988116 0.0026095042 0.001425289 -0.0015340967 -0.00014086704 -0.00018625661 0.0017972855 0.0046887076 0.0025750622 0.0011690588 -0.0024138757 -0.0012859808 -0.0001611815 -0.0020045387 -0.0022379667 -0.0030143028 0.0022281941 0.0023025817 0.0012662329 -0.0025224562 -0.003995649 0.0042931396 0.0019260552 -0.0032974556 -0.0043962174 -0.00050533086 -0.0033049688 0.004515181 -0.0008869851 -0.004065757 0.0026099859 0.0014936337 -0.001399327 -0.0028092635 0.0043048183 0.0038193439 0.0035632234 -0.0023989992 -0.0016701715 0.0037558547 0.0033594428 0.0014992739 0.0005109253 0.0013016582 0.004864808 0.00369004 0.0042299973 0.00034192615 -0.0006002148 -0.0022696713 0.00084944663 -0.00020176946 -0.0007137342 -0.0034954364 -0.0007443917 -0.0018052032 -0.003355758 -0.002217031 0.0041655516 -0.0010405135 0.0048048384 0.0013906672 0.004104773 -0.0035901628 -0.0012990885 0.00096085656 -0.0019786635 0.00081516115 0.0007738684 0.004609536 0.0025059176 0.0015661493 0.0026823182 0.0009724779 -0.0025490618 -0.0035810128 -0.00041527176 0.002855621 -0.0004868636 0.0026145794 -0.0039090896 0.0031710344 -0.000799525 -0.00025014006 -0.0024032746 -0.0016726328 -0.00058579526 -0.0033740115 0.0011294977 0.0005175666 0.00034290605 -0.000834494
你 -0.0003733927 -0.0010371992 0.0006218417 0.0028509325 -0.0010520834 0.00095126685 0.00017984713 -0.0025960004 0.00018193304 0.0022889161 0.0035929158 0.0027856492 0.00086165994 0.0028903754 -0.0027895917 0.003364874 -0.0027547823 -0.00241549 -0.0008496884 0.0031446647 0.0015559548 -0.0015674381 0.0011683138 -0.0016478137 0.002724125 -0.0018325746 0.00020486169 0.004405623 0.00086156843 0.0007671708 0.00080139755 0.0028560404 0.0035619033 0.0033034307 0.0015013784 -0.004066886 -0.0005362734 0.0005214303 0.0021106254 0.0022444427 -0.0005357067 -0.0035536848 -0.00091044034 0.0024215637 -0.0027739848 -0.0027341796 -0.0011748499 0.0024479576 -0.0028352025 0.0015991587 -0.0010251245 0.002384184 0.0032909927 0.00077459676 -0.0018901891 0.00077696075 -0.0022054324 0.004472915 -0.0019925376 0.0020094125 0.0018934328 -0.0026979027 0.00021045608 -0.0027699375 -0.003330162 -0.0015709398 0.003694287 -3.0179524e-05 -0.0027703464 0.0037076003 0.004283432 0.003128306 -0.0024228983 0.0017387063 -0.0008596645 -0.0023212451 0.0022338543 -0.004174317 0.0035789008 0.0031460149 0.0027833455 -0.0011771994 0.0041252114 -0.0006026121 0.0020978733 0.0017012968 -0.0017691965 0.0008465112 0.00052949984 0.00072306645 0.0011287158 -0.00074664387 -0.002582137 -0.002349582 -0.0021676356 0.0033146637 0.0031971016 0.002948684 -0.0012691248 0.0034915933 -0.0019481155 0.0007872064 0.0046292506 -0.0011266948 0.0031303617 -0.0007121471 0.002868754 0.00091559277 0.00349253 -0.0024746258 0.0028476487 0.0013813463 0.00048522497 0.0018155426 0.0023904513 -0.0011240348 0.002891595 0.002542545 -0.0009784552 0.0019250013 0.0028728833 0.0019966203 0.003570706 -0.00078844995 -0.0010095029 -0.0017946764 0.0019396568 0.0041127843
去 -4.5335102e-05 -0.00085636484 0.0043486883 0.0022383137 -0.0011321628 -0.0037190733 0.0017321553 -0.0035762007 0.0018614469 0.0012061419 -0.0033041118 -0.0005579155 -0.0029490816 -0.0017491266 0.0008964124 0.002012749 -0.0025503512 -0.0023541194 0.002133969 0.0013024042 0.0023338427 -0.0009385587 -0.004229292 -0.0015430596 -0.002769738 -0.0028351443 0.0035995692 -0.0006500052 0.0011115854 0.0015213192 0.004580197 0.0017540024 -0.0008143203 -0.0020311773 -0.0036595494 0.00052980834 -0.0045403703 -0.0025589054 -0.002512343 0.0039337547 0.0010603165 0.0017094564 0.0021994559 0.0044793477 -0.0025591524 0.0024282278 -0.00416175 -0.0028391285 -0.0009615867 0.0017419346 -0.0022857077 0.00017652396 -0.000995848 0.0023530633 0.002524769 0.0024403778 -0.0002493276 -1.6986161e-05 -0.0022624596 0.0002352324 -0.003931159 -0.0015103956 -0.0030923309 0.00030951822 -0.0048643043 -0.0049675936 0.0048669623 0.0036848062 -0.0012388348 -0.000837247 0.0013701387 -0.00060562947 -0.00024016888 -0.004113568 0.003013948 -0.0010895816 -8.244667e-05 -0.0027171557 0.0025041455 0.001964104 0.004334943 -0.0004574643 0.0028810075 5.7114463e-05 -0.0010495761 0.002100928 -0.000667487 0.0017163666 0.0025344938 0.0033186064 0.0021064207 -0.002819414 -0.004669638 -0.003587061 -0.0012635826 0.0004370135 0.0004653278 -0.0008122649 0.0038146265 -0.0028896893 -0.0015413412 -7.687866e-06 0.004588363 -0.0040545035 0.0023030448 0.003631165 -0.0036776697 0.0032861263 0.0036288192 -0.0018658052 0.00029195638 -0.0006161806 0.00071208127 0.0032553116 -0.00060975127 -0.0026740024 3.5838304e-05 0.0031560767 0.00023232357 -0.0013115867 -0.002430429 -0.002390838 -0.0015500855 0.0016413965 0.0016182258 -0.00345084 -0.001756674 0.0028852844
这边 0.00014765938 0.0026886188 -0.0014979879 -0.0022652857 0.0020303319 -0.00035536033 -0.003328797 -0.0033984298 0.002685664 0.00039887984 -0.00048315755 -0.004252701 -0.0032398829 -0.000454039 0.00060922164 -9.369737e-05 -0.0036040172 -0.0016765371 0.001486543 -0.0012794049 0.0027852356 0.0024870287 -0.00047245313 -0.0022631504 0.0030091223 0.00017026841 -0.0016309976 0.0023694423 -0.0022193226 -0.0009877523 -0.000933564 0.00184371 -0.0018796884 -0.0020541844 -0.0032455374 0.00041003106 -0.0010148052 0.0032287082 -0.0015769252 -0.0037212784 0.0037312328 -0.0035612488 0.001100205 -0.0005368834 0.00075011904 0.0029789975 0.0012888121 0.0036706838 -7.4811884e-05 0.0007818059 0.0018576593 0.0020899975 -0.0013797567 0.0021047583 -0.0007221716 -0.0014645853 -0.0030304068 3.3085667e-05 -0.0013218209 -0.0018563096 0.00046902808 -0.00096358376 5.615927e-05 0.0026840128 -0.0027425718 0.0010049542 -0.00048355034 0.0010627419 0.0019895344 -7.351948e-05 0.004123069 -0.0026997898 0.00064305344 -0.0027571637 0.0031021705 -0.003926262 -0.0036141626 -0.0035703583 0.0010996354 -0.0023366355 0.004603026 0.00080563856 0.0008878275 -0.0023551385 0.0017752362 0.0019431188 -0.0035294986 -0.0006293186 -0.0024327147 0.00023061344 -0.0043398966 -0.001665518 -0.0033086813 0.002195179 0.004372259 0.002548222 -0.0015985458 4.4703018e-05 -0.0037363616 0.0019893125 0.0034135128 0.0006311213 -0.0027470805 -0.0019313692 0.0026158274 -0.0034125953 -0.0035395226 -0.0034443126 0.0023962064 0.00195943 -0.00010650391 0.0030477515 -0.0037351942 0.0003174606 0.0009130733 0.001265317 0.003276105 -0.0010323864 0.00059976784 -0.0010128545 -0.0030403123 0.0008697466 0.0028158876 -0.0016107524 0.0014638305 0.0009648526 0.001307523 0.0031055755
东西 0.004345807 0.0024481493 -0.0019929553 0.0027839832 -0.00044017017 0.003144218 0.0029579506 0.00097413943 -0.0011410462 -0.0032304446 0.002639427 -0.0022463552 -0.003322405 0.0028173644 -0.002132511 0.0011381971 4.563898e-05 0.0035786568 0.0012168415 -0.0034861169 -0.003101245 0.0011298725 -0.001795866 -0.0022535608 -0.0028022695 -1.3563258e-05 0.0022231557 -0.00030060258 0.0027820389 0.0029541336 -0.0029056543 0.00084080355 -8.850741e-05 -0.0004951153 -0.0032946542 0.00149859 -0.001549299 0.00050452165 -0.0024547772 -0.00033408013 0.0037875583 0.0022220593 0.001899138 0.0041508926 0.002851407 -0.0025912595 -0.0012204486 -0.001277973 0.00085080933 0.00027847683 0.0023206798 0.0025127684 -0.0018092599 -0.00028852868 -0.002477057 0.0008676172 0.0015588532 -0.0017795109 0.0022506346 0.0019018076 -0.0018358532 0.003220872 0.0029104063 0.00042444325 -0.0005001857 -0.0038049852 -0.00076284277 -0.0011791076 -0.0012214147 -0.003737472 0.00059591554 0.001952641 -0.0035809688 0.00029893656 -0.0022464744 -0.0015149482 -0.00071359717 -0.0018182847 -0.0026534416 -0.00037752982 0.00024087242 0.00015714121 -0.0027783664 -0.0034983933 -0.0029091565 -0.0036122557 0.0028356016 -0.0019497897 0.0006938558 0.0015550641 -0.0027121324 0.00089319516 0.0029099712 -0.0023283542 -0.001326438 -0.0020256161 -0.0019356393 -0.004110822 -0.0032825 -0.0012395612 0.0027056746 -0.0016761932 0.004015891 -0.00093601766 0.0016422211 0.00050670485 0.0038570538 -0.0037600356 0.0005159292 -0.0030001104 -0.001714688 -0.0044453396 0.00299834 -0.0032263338 -0.0032907021 0.003673191 -0.0025453817 0.0010955344 0.0005221612 0.0002769995 0.0021449209 0.0019273435 -0.0012826424 0.0019308395 0.0031911698 -0.0004204235 -0.0023433499 0.0009688326
请问 -0.00036784058 0.0017467951 -0.0019793238 0.0032438308 0.002599161 0.002171329 0.00032075806 0.001053457 -0.0023894021 0.0006470272 -0.0016576437 -0.004048273 -0.003785111 0.0018172315 -0.0022926799 0.003378244 -0.0027184829 0.003168378 0.0025605247 -0.00028079728 0.00095242605 0.00064490736 -0.0021562674 0.00092835666 -0.0023441797 -0.0025673902 0.001413138 0.0013220869 0.0010431173 -0.0018101685 0.00024078893 0.0013454241 0.0007292675 0.0013073285 -0.00018674252 -0.0019753224 -0.0007859675 0.002731685 0.00038160634 -0.0005559836 0.00070366333 -0.0023724316 -0.0032423874 -0.0026515017 -0.0019064711 0.0004846538 -0.003944356 -0.0033925057 0.003490699 0.002397343 0.0012240785 0.0033634899 -0.0034306266 -0.0010171954 -0.0024650204 -0.00060014636 -0.0037747682 0.0025536045 0.0006746078 -0.0025483875 0.001995913 -0.003176644 -0.0017872477 0.00015261261 0.0012701065 -0.0022778353 -0.0025831342 -0.0021521666 -0.003262108 0.0014834342 0.002418064 0.0027169578 -0.0004191053 0.00090011396 0.002816264 0.003161892 -0.0024839416 0.0028399767 0.0033357544 -0.0012233312 0.0027848694 -0.00048022 -0.00040084758 -0.0037562198 -0.0024454654 -0.0020561742 -0.0025891876 -0.0010543251 0.00225805 0.00030977666 -0.00022877392 0.0032430557 -0.0024320267 -0.0018736634 0.0018864535 0.002877804 0.0011228556 -0.0023535453 0.0028231842 -0.0029191715 -0.0016862799 -0.0033170995 0.00042248756 0.0034251532 0.00018580172 0.0037952322 0.0016876068 -0.00027463198 0.0033158103 0.0031049077 0.00362451 -0.002639758 -0.0010108522 -0.0032710377 -0.0024162636 -0.0022244789 -0.002939589 0.001975418 0.00026157155 -0.001074971 0.0033441395 0.0003446882 -0.0014192769 -0.0015181267 -0.0014848968 0.00078589283 0.0012835639 0.0007130227
羽毛球场 0.00074972614 0.0032563226 6.8470756e-05 -0.0017449674 -0.00066845125 0.003981588 0.0016639294 -0.0001304711 0.0025236323 -0.00187008 -0.0019948876 -0.0028303023 0.00023053434 0.0025088624 0.002112706 0.003507336 0.0039440817 -0.0029797845 -0.0031211171 0.0022556097 -0.0030494363 0.0009821787 -0.0029936887 -0.00028724642 0.00016022888 -3.1546027e-05 -0.001745621 0.0041862107 0.0015546924 0.0042289905 0.0014889969 -0.001431575 -0.003940077 -0.0032229582 -0.004904717 -0.004416421 0.001026047 0.00028180686 -0.0030860286 0.0015981101 -0.002481549 0.0029685926 -0.003965314 0.002194349 -0.0030459166 5.7916375e-05 0.0006462263 0.0001548783 0.0028240683 -0.0034717678 0.0026082017 0.0042250226 0.0030582298 -0.004275077 0.0032325971 -0.0019569031 -0.0005848465 0.0027153366 -0.0023410763 -0.001138261 0.0024005836 -0.00250175 -0.00019501455 -0.0014621713 -0.00049937237 -0.0013136686 -0.0027209858 0.00042450504 -0.0004583787 0.003417785 0.0018528263 -0.0029139735 -0.0035823816 0.0035409627 9.612763e-05 0.003488877 -0.0008244565 -0.0031942178 0.002389033 0.001710706 0.002770349 -0.0011313729 -8.2471115e-06 -0.00044089687 0.004073579 -0.0030925886 0.0030325952 -0.0020342069 0.0009835148 -0.00027791812 -0.0037712571 0.0041756216 -0.0031956057 0.0013348315 0.0021488874 0.0035479653 -0.0011220779 0.001858093 0.0037299276 -0.0027898562 -0.00081199897 -0.0010991546 -0.00012781807 0.001301987 0.0025658037 -0.0029376724 0.00060139515 -0.0010250022 0.0035469953 -0.0011004005 0.0028798974 0.0015516175 -0.0030086406 0.0028945897 0.0017751696 -0.0017054657 0.00352515 0.0038377924 -0.0039003717 -0.0010982158 -0.0037506893 -0.00034695546 -0.0027215057 0.0016781661 0.002245388 -0.00041299145 -0.0022350606 0.00346027
看 0.0014795931 -0.0012203663 0.00024892954 -0.0027696432 -0.0039501064 -0.0018330143 -0.0013595339 -0.0004718827 -0.0013244118 -0.0012760555 0.0037548912 0.0008098004 -0.004150745 0.00039961896 -0.0029730685 0.001326776 -0.002699565 0.0026612193 0.0018222205 0.004484983 0.0014627296 0.0031656444 0.0026571273 -0.0008852345 -0.0028157616 0.0026741 -0.002199213 0.00033327908 -0.0029492292 0.0026241222 -0.0026640703 0.0026749505 -0.0028727432 -0.0022929404 -0.004697639 -0.0016355204 -0.004690202 -0.003605559 -0.00194216 -0.0016958187 -0.0023336397 -0.0027015873 0.0034390239 0.0014505237 0.00023802658 -0.000329786 -0.0027575723 -0.0037708445 0.0016805797 0.0016162413 0.0033427991 0.0012225372 0.0030073808 0.0002480737 -0.0032294423 0.0023596648 0.00045542355 -0.00064201816 -0.0010006109 -0.002569652 -0.0045482498 -0.00323751 0.0027743466 0.0031012255 0.0027172654 0.0007086525 0.0014633012 -0.0013856511 0.003366467 0.0038136432 0.0016980895 -0.0034310182 -0.0030854102 -0.0040203487 0.00041914746 0.0020307398 7.075936e-05 0.0033005907 0.0013113614 -0.00041579024 0.00024158864 0.0025574837 -0.0009450235 0.00296634 0.004814487 0.0039575323 0.0032102943 -0.0026179159 0.002109526 0.0026359742 -0.0010768364 0.004438987 0.0016253624 0.0016724092 0.0015642327 -9.792737e-05 0.0043609743 0.0013088803 0.00074611104 -0.0021738978 -0.0009608776 0.00030815642 -0.0007489805 4.8629336e-05 0.0012977195 0.003617473 -0.0026179731 0.00049549324 0.003687155 -0.0005336427 -0.0006171358 2.1564201e-05 0.00018214546 -0.0028373245 0.0019203073 -0.0018111565 -0.0029028524 0.0031004343 0.0030120201 0.0034650667 -0.004029724 -0.0027646485 0.0032238818 -0.0021780317 0.0019439396 0.002123229 0.003954146 0.0028823856
场地 0.0021372358 0.0020369475 -0.0023906764 0.0013438327 9.186363e-05 -0.001957948 0.0012956043 -0.0029889033 0.001339842 -0.0038452614 -0.0020452356 0.00056380127 -0.0016821958 0.0019607337 0.0017501463 -0.0031561512 -0.0037210248 0.0039766626 0.00065841794 -0.0014800815 -7.907974e-05 0.002669629 -0.0010385541 0.003542212 0.0003555447 -0.003075583 -0.00017824802 0.0045610187 -0.0035923116 -0.0013417926 0.0014111053 -0.0016983134 -0.0032110654 0.0031580436 -0.00093112915 -3.2441123e-05 0.001044237 -0.0013904183 -0.002600377 0.0028907063 0.0005118894 0.0007990174 -0.001404659 0.0039234054 -0.0036310032 0.0014829375 -0.00031038822 -0.0002192876 0.004065411 0.0030299416 -0.0015006787 -0.0024378907 0.0024190093 0.00062157144 -0.002189206 -0.00051046873 -0.0034505415 0.0026433691 -0.002229898 0.0011194288 -0.0032280462 0.0031246615 -0.003718907 0.0038642995 -0.003308966 -0.002915204 5.9037993e-05 0.0040927934 0.0004606272 0.0014756958 0.00079167075 -0.0029619301 -0.0019932082 -0.0009293962 -0.0013962631 -0.00065868744 -0.0028304486 0.0021399073 -0.0006611354 -0.0002757427 -8.318453e-05 0.0026348394 -0.002265027 -0.0008937904 -0.00040451714 0.0022453596 -0.0010647046 0.003318983 0.0031469371 -0.003755083 -0.0036537636 -0.00084888557 -0.0044359695 -0.003993938 0.0017247328 -0.0017399328 0.0035887219 -0.0026015618 0.00028020318 -0.0010159108 -0.00058760453 0.0009993586 -0.0009871529 -0.0014909884 -0.0032723735 -0.0029607064 4.9608116e-05 -0.0016044182 -0.00058299274 0.0028531894 -0.0029267124 -0.0022251816 0.0034985854 0.0014444614 -0.00028916105 0.0004164787 -0.0007992182 0.00023779407 -0.0033338424 -0.0031533653 0.0032991946 0.0014358119 0.00031284936 0.0038167143 0.0010885032 0.0029785875 0.0016731377 -0.0015511278
呀 -0.000767539 0.0018574258 0.0020865763 0.002975387 -0.0010603134 -0.0018963232 -0.001416023 0.0025779544 0.0018866914 0.0020542636 0.002477117 0.00029453472 -0.004252387 0.0020331105 -0.0011188461 -3.302798e-05 -0.0020428533 0.0035397306 -0.0036475337 -0.0005700148 -0.002230543 0.0017844382 -0.0014112174 0.0002442324 0.0024153937 0.0015316431 0.0034479387 0.0034685587 -0.0033426732 -0.003071479 0.0025087567 -0.0035770028 -0.0041059474 -0.0004021701 0.0017339125 -0.0023935616 0.0019593237 -0.00038881873 0.00222498 -0.002309564 -0.002863505 0.0016247751 0.0016693096 -0.0022729582 0.001439422 1.3787296e-05 -0.0022275427 0.00068419793 -0.0025780073 -0.001978191 -0.0031069363 0.0032940146 -0.0007485442 -0.000540471 0.0010536357 -0.0019027888 -0.0011389585 -1.5708523e-05 0.0023734032 0.001800414 0.0025715444 -0.0004973013 -0.002537415 -0.002730743 0.0024436994 -0.00057000644 -0.0019138898 0.0038121985 0.0021611892 -0.0033906666 -0.0030485473 -0.0023890766 -0.0010472967 -0.0024449814 0.0022918414 -0.0020807174 0.002910514 0.0032438443 -0.001846773 -0.0011407457 0.003901989 -0.0027105596 0.003280538 0.0029629336 0.0045432546 0.0025820683 0.0020918802 0.0036354233 0.0038411196 -0.000666192 -2.9037978e-05 0.0012876167 0.0012808493 -0.00045879287 0.0008616265 -0.002653115 -0.0011607542 0.0005786228 -0.0023419994 0.00047464352 0.0007266384 0.002548573 -0.0023794703 -0.0012899722 0.00020819204 0.0023484242 0.0035487323 -0.0033961863 -0.00028426223 -0.003273476 -0.003163022 -0.002107468 0.003703239 -0.0026544519 -0.0032390617 -0.00030847293 0.0026466758 0.0036346016 0.0020192482 0.0026296738 -0.0010602203 6.803702e-05 -0.00018357008 0.002913588 -0.0032741886 -0.0020754386 0.0016413782 0.00037988994
是 -0.00031125083 -0.00042991512 -0.0027258664 0.0040063662 -0.003379304 0.0026349803 0.0014398391 -0.00026110114 0.0023336848 0.00017642044 0.00087642856 -0.004258683 0.0005553463 0.003562745 -0.0012564694 0.0025701346 -0.00092970434 -0.00245073 -0.0039894637 0.00046804186 0.0004312351 -0.0029167638 -0.003020938 0.0037405577 -0.00045532937 -0.00052424637 0.0036848823 -0.0021864404 -0.0005816951 0.00237416 -0.0024708472 -0.0013453342 -0.0031066153 0.0010875427 -0.002653312 -0.0026691344 -0.0009031095 -0.0023094357 -0.0031631577 0.0040372997 0.0034718914 0.0024553859 -0.0034232403 0.002993195 -0.0024722165 8.195775e-05 -0.00055712194 0.0032514636 -0.002108209 -0.0028723956 0.0002765575 -0.0002662222 -0.0015119624 -0.003046214 0.0033526653 -0.003139964 0.0026173475 -0.00149126 -0.002793297 -0.00031687747 -0.0042895186 0.0023137748 0.0009530943 0.0004822369 -0.003447706 -0.0014564851 -0.0006155426 0.0029457756 0.0035719736 -0.0038608892 0.0031235674 -0.0012080637 0.0025831084 -0.0026160032 0.003950932 -0.002829171 0.00090006564 0.00074693846 -0.0019796244 -0.0019312402 0.0006141016 -0.0028213705 0.0025593445 0.001663504 0.0014314852 -0.00045019964 0.0014614493 0.0010489208 0.0032483716 0.0029977409 -0.0035232613 0.0032838434 -0.0032257899 -0.004337987 -0.0023229814 -0.0024596797 -0.0022661306 0.003445958 0.0012149918 2.983736e-05 -0.003033533 0.0007133225 0.0006304876 -0.0030378979 -0.0016014876 0.0011691108 0.0018380783 -0.0034886987 -0.0029913823 -0.0027003705 -0.0017732673 -0.0024961373 -0.0020046912 0.0005659738 -0.002113909 0.0026765466 0.0030464649 0.0027123191 -0.0009341934 0.002544423 0.002028502 0.00016800153 0.00012686716 0.0011585917 0.0025984219 0.0031262243 -0.0011313041 0.0002501867
来 0.001665476 0.0020656008 0.0039365203 -0.0020211597 -0.002823627 0.0022832116 0.003873074 0.0020341275 -0.003157921 0.0013579072 -0.00065120874 -0.0021425497 -0.003864431 -0.0030706166 -0.0005038634 -0.0009713657 -0.0017027177 0.00036833494 -0.0017786532 -0.0003084505 0.0024153742 0.0025116438 -0.0038216703 0.0030207427 -0.00097244425 -0.0012462658 -0.0014918934 0.0037464777 0.0018222008 0.0018087296 -0.00218639 -0.0023019179 -0.0041026627 0.0017460617 -0.0016698805 0.002184514 0.0004143689 -3.0494455e-05 0.000727261 -0.0014425204 -0.0037689672 0.00048186118 -0.0028615727 0.0014285395 0.0011362664 -0.00087705674 -0.0034322708 0.0008026972 0.0027105326 0.0030666604 0.00031849163 0.0020870683 0.003982853 -0.0022656687 -0.0020372863 0.003030185 0.002596512 0.003221599 -0.0040009874 -0.0017007237 -0.0036001303 -0.00138016 -0.0012603634 0.0044187745 5.6372373e-05 -0.0017916589 0.00045773265 -0.0007945032 0.0027278569 -0.0028154687 -6.836188e-05 -0.002020373 0.0008251314 0.0032128275 -0.0019470485 0.0033371951 0.0014164875 -0.0018042111 0.003908792 0.0037763664 0.0022151899 -7.721284e-05 0.0027536466 -0.0032043473 0.0035372681 -0.0018350768 -0.0020160263 0.0012530539 0.0018024356 -0.0029886938 -0.00033952508 0.0006345764 -0.0038167571 -0.004852158 0.0044293287 0.0011952416 -0.0010054825 -0.0029054163 0.003871298 0.0016715198 0.001987778 0.0023285334 0.003519312 0.00028001182 -0.00021556522 -0.0029454501 -0.0010412274 -0.00050943 -0.0026142471 0.0030811422 0.0032452757 -0.0047481554 -0.00215381 -0.0036163318 0.002821148 0.00084368937 -0.00020228076 0.004390589 -0.00029293788 -0.00025622916 0.002484446 0.0037337262 -0.0023015891 0.0023617696 0.0028670812 -0.0018865223 0.00014462124 -0.00075038767
这个 0.0044355346 -0.0025288237 0.00048958784 0.0011425833 0.00081255863 -0.0018454229 -0.00067052373 0.00094807113 0.0033463226 -0.0030761291 -0.0015082556 6.24763e-05 -0.0018224558 -0.0007922073 -0.0041405186 0.001352974 0.0027832256 -0.0025617583 7.05636e-05 -0.0032424957 -0.0033340517 0.0026882833 -0.004289764 -0.0009856155 0.003566416 0.0022054869 -0.0005843667 0.0007021521 0.00094640226 -0.002389932 0.0035159742 -0.002005327 0.0028843083 0.00091385486 -0.0012357346 -0.0023554403 -0.0002577426 -0.001461722 -0.004186331 0.0017582215 0.0019754379 -0.0010692743 -0.0020813528 0.0034227683 0.0022249313 0.00041833773 -0.0011676353 0.0014069801 0.0037268111 -0.0014888439 -0.0014961362 0.0025335227 0.0010224984 -0.0045035244 -0.002631442 -0.000569991 0.0013012857 0.0040082866 0.0012790752 -0.0034385305 -0.00073295576 -0.0010669355 -0.0031398435 -0.0031508827 -0.00062233745 -0.004071899 0.0037346997 0.003620073 -0.00039885152 -0.0024199218 -0.00032379132 0.0027283118 0.003301647 0.0022873266 -0.0023746765 0.000910068 0.0034710765 0.00050000654 -0.0011101353 0.0027705063 0.0044382703 0.0042569865 0.002457148 -0.0011557182 0.004179525 0.0013823443 0.003139345 0.002688925 -0.0004354605 -0.0011717394 0.0012017655 -0.00013510775 -0.0034453245 -0.0029308822 -0.0033544274 0.002675219 0.0010920211 -0.0014738452 -0.0022222141 0.0009150956 0.00045745546 -0.0021754222 -0.0014606457 -0.0039588963 -0.0031552783 -0.0034274757 -0.0035282425 -0.0010715324 -0.00016237443 -0.0029314673 0.0032933925 -9.165247e-05 0.0023230645 -0.0010832379 -0.0012519502 0.0025947052 0.0017585426 0.0023466263 -0.0014446931 -0.001969476 0.0007471221 0.0016367037 -0.0018840276 0.0006694934 0.0014979643 0.003250975 0.0034805546 -0.00097439636
吃 0.0044659763 -0.0010563178 -0.001519736 0.0007848355 0.0007756659 0.002594191 -0.0024728514 0.0026892652 0.003105672 -0.00312287 -0.0008122009 -0.0012972209 0.003321389 -0.00042225834 0.0035521365 -0.00014789878 0.0040019155 -0.00081956555 -0.0028495358 0.002054369 0.002987011 -0.0029686894 -0.003137441 0.0044118487 -0.0014001617 0.001047898 -0.0011939459 -6.8337076e-06 0.00054529094 0.0023192463 -0.0008374223 -0.002923545 -0.0028781432 0.003754453 0.002896466 -0.0019469771 -0.004181108 0.0026977821 -0.0034158507 0.00057834515 -0.001374935 0.00015663 0.0035565847 -0.0011453277 -0.00268382 -0.0016915952 -0.0010823157 -0.0024268334 -0.00073976984 0.0005124583 0.0036795107 0.0006716905 0.00036000926 0.0008880634 -0.003009734 -0.0024821651 -0.0027632208 -0.0005496789 0.001905282 0.00021875241 -0.0017225349 -0.002057304 0.0025717658 -0.0015988117 -0.0004087652 0.0031805297 0.0013648245 0.0017526108 0.0027219213 -0.0004932596 0.0002055732 -0.002439956 0.0032955278 0.001909295 -0.0029608724 0.0026233688 0.0034366483 0.0018252733 -0.0005669305 0.0031739718 -0.0023666332 0.0017908759 -0.0010199957 -0.0010820524 0.0022548435 -0.002897654 -0.0030281108 -0.0016447074 0.004357241 0.0019041646 0.00056346605 0.0012967056 0.0026130972 0.0011683775 0.002927452 0.00011752543 0.003175139 0.00029166642 -9.42476e-05 0.00071054505 -0.0013935568 0.0031613207 -0.0028833728 0.0034059165 -0.0017658869 0.0030265856 0.0016109459 -0.0024313533 0.0017746349 -0.0031808123 -0.00088213006 -0.0012870186 0.0028593657 0.0023031337 -0.0016943271 0.002890727 0.003730969 -0.0021810464 0.00344295 -0.0006301277 -0.0027523988 0.0008527593 0.0038286645 0.00060552143 0.0031411878 0.0038722043 -0.00041287718 0.0030360573
给 0.0030969754 0.003316545 0.0004643368 0.0034078856 0.0026032734 -0.0020925545 -0.0009025721 -0.0004746915 0.0003689939 -0.0028389012 -0.0012879418 -0.0021313208 -0.001966151 -0.00065866165 -0.0005286011 0.0019137298 0.0014812252 -0.00020882285 -0.00058113097 0.0011492613 -0.001110368 0.002653385 -0.0014543952 0.001412499 0.0014179674 -0.002764944 0.00209216 0.0018536743 8.305665e-05 -0.0010967741 0.002061672 -0.0027181548 0.0020289498 -0.00029811484 -0.0020168042 0.0033022738 -0.0010771196 0.0018262274 -0.0039280625 0.0019514642 0.0029589245 0.0027282033 0.0008858313 -0.0016145966 -0.0032682773 0.003453091 -0.0011498914 0.0015386604 0.0020088144 -0.0036268765 -0.0014987085 0.00032405957 -0.00066034676 0.00095933257 -0.0014572183 -0.0005498895 -0.0022173012 0.0046971175 0.0030703405 -0.0008097117 0.0010446489 -0.0014473052 -0.00044037984 -0.00017132252 -0.00061599875 0.0016726104 -0.0024576904 0.0016657944 0.0031428274 0.003405791 -0.001228729 0.00043383767 0.0030659537 0.00070890243 0.0033247569 0.0011030756 -0.0029117134 0.0011043319 -0.0004642688 0.00080980203 0.0038525278 0.0029966251 0.00035260947 0.0011752751 0.003293576 0.0028569319 -0.00225289 -3.0701867e-05 -0.00083466206 0.0019044994 0.00022074663 -0.00057190814 -0.0009078287 0.0004967717 0.0045389677 0.0040629194 -1.4695075e-05 -0.002113093 -0.0014452878 -0.0034175252 0.002557346 0.0022363828 0.0022248938 -0.0022424078 0.002814942 -0.0011327161 -0.00010253635 0.00040897558 -0.0039286534 -0.00086577825 0.0039980803 -0.004494465 -0.0013739221 -0.0016176281 0.0022313602 0.0005220722 0.0008277936 -0.0020160659 -0.0030336292 -0.00036105662 -0.0011822481 -0.0013208556 -0.002202322 -0.0027188987 0.0034556584 0.00047578412 0.0032942062 0.0012010142
走 -0.00025524967 0.0010927339 0.0032162904 -0.001029501 -0.001106917 -0.0011363802 0.0030841285 0.0029097076 0.0022635967 0.002866946 0.002711046 0.001861099 -0.00032275164 -0.00010697457 -0.0041644108 4.3602056e-05 -0.0020190352 0.004235068 -0.00138283 0.0016032003 0.0013008878 -0.00081213197 -0.0036904572 0.00040051184 0.0025102186 -0.00019781645 0.002570374 0.0032363473 -0.0033324754 -0.002867338 -0.0012416287 0.0007613512 -0.0042630644 -0.00058117934 0.0019481955 0.0025263827 -0.00256098 0.0035490459 0.00046125802 0.0023269854 0.00094049866 0.0027865963 -0.0019216748 0.0040195347 -0.0028130685 0.001539893 0.0012007272 0.0010475765 -0.00037675392 0.0037746567 -0.00025552354 0.0009878196 0.0038693475 -0.0008425491 -0.0033639579 -0.0008229563 -9.604978e-05 -0.001399491 -0.003991512 -0.0013124562 -0.0024197965 0.0026946655 0.001929536 -0.0008440104 -0.0030203988 -0.004716342 0.003384459 0.0036051953 0.0010549545 0.00035802118 0.003520951 -0.00046117365 0.0025122901 -0.00018396853 -0.0012464954 -8.162233e-05 0.002518808 -0.0023974313 0.00092882913 -0.0032734587 0.0034563963 0.004366534 -0.0030857685 -0.0037878638 0.004115922 0.0038166698 -0.0015727704 0.0036609608 0.0035277163 -0.0033048764 -9.165344e-05 -0.0028584376 -0.0032958987 0.0018204174 0.0009690583 0.004053251 0.00181429 -0.003001068 -0.0027865649 0.00031240797 -0.0028823502 0.0022296922 0.004993251 -0.0038604345 -0.00087353215 0.0019112036 -0.003397302 0.00051719276 0.002234858 0.0011697456 -0.00086150115 -0.0015119358 -0.0026678247 0.003439107 0.0008103278 0.001184569 0.0032344828 0.0031190524 -0.0030659174 0.0034082888 -0.0016027542 0.0038245013 0.0026225597 -0.0001378669 0.0006068768 -0.0006483341 -0.0020983617 0.0009653522
游泳 0.0012323782 0.0026928033 -0.0013180216 0.0005544936 0.0017978543 0.0038643463 -0.0007559967 0.0014553322 0.0027654348 -0.0017034112 0.00013681699 -0.0005329469 -0.002061147 0.003543889 -0.00030996258 -0.0013537769 0.0018647396 -0.00073469424 0.0027250887 0.0029352903 0.0025520006 -0.0030296324 0.0021545442 0.00051120925 0.0021990372 -0.0014401592 0.0038887216 0.0018694631 -0.0027418972 0.003575514 0.0024445634 -0.0025712017 -0.002637903 0.00050832325 -0.00042923554 -0.00093224226 -0.0013945743 -4.6479385e-05 -0.003679257 0.0021080463 0.00062804046 0.0032064836 -0.0033810127 -0.0026917034 0.0009858416 0.0034926613 -0.00208432 -0.0029976114 -0.0005445692 0.0035986828 0.0017780375 0.0019951393 -0.0019770248 -0.0022853923 0.0015302983 0.0031592401 -0.0026266384 0.004869596 -0.0029127179 -0.0040296367 -0.002820713 -0.0027507434 0.0022863576 -0.0032236744 -0.0040057804 -0.002707354 -0.00018308716 -0.0008272843 0.0025892286 0.00074778433 -0.001424607 0.0035018474 0.0031598357 0.0025365602 0.0036416994 -0.0016638731 0.000103394814 0.00023822823 0.0046192477 -0.00019224465 0.0019937018 0.003086651 0.0013754118 0.0019052064 -0.00010747517 0.0009747498 -0.003402855 0.00391861 0.00014498201 -0.0022321155 -0.00025526446 0.0035685003 0.0015506729 -0.0029075756 0.0032537668 0.0018346432 -0.0021764024 -9.352031e-05 0.0037470607 0.0020489001 -0.0029672298 -0.0037057654 0.0011093694 -0.00045683802 0.004504494 0.0020556112 -0.00016585636 -0.002516945 -0.0028738445 0.00025124577 -0.0025159235 -0.0044752276 -0.0025965006 0.004125654 0.0016436597 -0.0006705163 0.001527068 -0.0015088173 -0.00366005 0.0014024861 -0.0048365314 0.00013577803 -0.0027107855 -0.0008458873 0.0009107079 -0.00016736226 0.00035172698 0.0010442508
帮 0.004036539 0.0007762939 0.004398633 0.001213175 -0.0034586093 -0.0025283366 -0.0016596311 0.00013643227 0.0007402396 -8.9024856e-05 -0.0013269638 -0.0032961492 -0.0041174768 0.0019509025 -0.00051949243 -0.00017431397 -0.0032911934 -0.003157078 0.0020138964 -0.0025484227 -0.0025728825 0.0030935502 -3.5386733e-05 0.0029633648 0.00071189605 -0.0040516104 -0.0010642709 0.004537053 0.0018759856 0.0022283695 0.0023434393 0.0033383707 -0.0006772927 0.00028523072 0.0005547865 0.0014770214 -0.0047067082 0.0031828608 -0.0007940757 0.0033156895 -0.003708356 0.0011941488 0.0021299336 -8.3628845e-05 0.001678389 0.0037835552 0.0011485893 -0.0028619536 0.00052525155 0.00072456733 -0.00034347113 0.0023462768 0.00049942924 -0.0024218748 -0.0011404924 0.0021755772 4.390143e-05 0.0032911662 -0.0017300934 -0.002151779 -0.0021978535 -0.002475595 -0.0029175188 -0.0031693436 0.0012513638 -0.001813871 0.0025503708 0.004407656 0.004458682 -0.0025693076 0.0043552443 0.003038458 -0.0011276344 -0.0012244303 -0.002540993 -0.0022467496 -0.00040213906 0.0001238293 -0.0024965832 -0.0021794457 0.0042069145 0.00078441674 0.003505318 0.001743923 0.004468606 0.0019484496 -0.00047849937 -0.0031591363 0.0020517192 0.0028505682 -0.00081802276 0.0014720487 0.0012967413 -0.0041681803 -0.0004457715 0.0023440125 0.004649434 -0.0024569149 -0.00128388 -0.0028055788 0.002113117 -0.0038950308 0.004620324 0.00042327656 0.002957387 -0.0034157925 0.0031484424 0.000496236 -0.00041290835 0.0025558656 -0.00050785125 0.002226004 0.0023196673 0.0021307408 0.002901203 -0.0011436391 0.0004857402 -0.0010190011 -0.002864375 -0.0017101943 -0.00032515742 0.0035897167 -0.00068540307 0.00086550997 0.0018254743 0.0005543621 0.0013218549 -0.0025933988
问 0.003137644 -0.002861243 -0.0024049913 0.0020245316 0.0038107 -0.00095416553 -0.0034465324 -0.00340496 -0.0022210798 0.0015415897 0.0006609251 0.00025703642 -0.0012522318 0.0039078607 0.00031065787 -0.0026555317 0.0028950481 0.0011415932 -0.0018392239 -0.0010834922 0.0024616092 0.0027627046 0.0025890176 -0.0025455838 0.0011333501 0.0036974507 -0.0020812566 0.003964797 0.0030105088 -0.0008747629 0.0027571514 -0.0006888038 -0.0030560326 0.0012242497 -0.0017242186 0.002446762 -0.00016729403 -0.0010354419 0.0011112699 -0.0013005609 -0.003117282 -0.00017305657 0.0009165821 0.0020926148 -0.00032121668 0.0014295529 -0.0028008274 5.3993725e-05 0.00036638443 0.0019629404 -0.0012608161 0.0018273466 0.00062209443 0.0016580505 -0.003369815 -0.0027985526 -0.002865826 0.0008800798 -0.0027264524 -0.0029811377 -0.0003660646 -0.00025805546 -0.0010917872 -0.0006937109 -0.0008995968 -0.0030719973 0.0041030846 0.00027292228 0.0034067116 0.003017026 0.0042656786 0.0037973456 0.0033916114 -0.0023269465 -0.0021597147 -0.0007574759 -0.0020253342 0.00023886056 -0.00073703314 0.0023316077 0.0006697646 0.0019470021 0.0024553475 -0.0025089867 -1.8622797e-05 0.00356158 -0.0036523077 0.0013693691 0.000101017475 7.3591385e-05 0.0011995719 -0.0010841858 -8.0806814e-05 0.0013780639 0.004425171 0.0001501202 0.0026350657 0.0012925778 -0.00014280947 -0.0031680847 0.0011090573 -4.762034e-05 -0.002857068 -0.0004247902 0.0011547905 -0.0027660895 0.0039682356 0.0017743617 0.002795936 0.00031047745 0.0007204235 -0.0036073858 -0.002160756 -0.00039639487 -0.0018485786 -0.000726744 -0.00245474 -0.00042283052 -0.0025242786 -0.0026722332 -0.003881101 -0.0003596514 -0.0019291199 -0.0026771657 0.003611947 0.0019954925 0.0029254595 0.002842045
天气 0.002423084 -0.0016923363 -0.002431598 -0.0019146372 -0.00023687545 0.0015871465 -0.0019271766 -0.0032780035 -0.00015664905 0.0004794978 0.0026576219 -0.0022857261 4.4416847e-05 -0.0035946863 0.00039252557 0.002246139 0.0036655175 0.003977409 -0.00011047741 -0.0033609313 -0.001314405 -0.0014385473 -0.0022907958 0.0023918399 0.0025030484 8.465511e-05 -0.0029926817 0.001654412 -0.0013311512 0.0025016295 0.0032135942 -0.0010959123 0.0004481015 0.0019375457 0.0011691347 0.0013364357 0.0017178045 -0.0037608468 0.00028091317 -0.0027923803 -0.0029723737 0.0029316933 -0.0015422499 7.906056e-05 0.0022515648 0.0029731835 -0.0027678385 -0.0015256793 0.0037378513 -0.003792003 0.0021677262 -0.0004317952 0.0016602674 -0.0036733064 0.001919021 -0.00017360019 -0.0019604843 0.003437046 0.00014359875 -0.0029273368 -0.0019357749 0.00063139386 0.0035334008 0.0035793069 -0.004180967 0.0015383133 0.0019099108 -0.001030378 0.00074925163 0.0010739488 0.0034000566 -0.003529813 0.003429002 -0.0020484927 -0.002142457 0.003521297 0.0023792242 -0.0021783472 0.0014343366 -0.0003538765 0.002280869 0.0021963094 0.0029080578 -0.003442713 0.00055626174 -0.0028450054 -0.0036684405 0.0035386363 0.00035667728 0.0008902408 0.0027000497 0.0020317384 0.001790366 -0.002509043 0.002788053 -0.0028223 -0.0006263739 -0.0026747687 -0.0029205722 0.0019495435 0.00040600545 -0.0006668864 -0.0011637919 0.0021683506 0.0033672038 0.002165314 0.0038376038 0.0025971776 -0.0031222012 -0.002721937 -0.0007284733 -0.0034520973 0.0023755913 -0.0033712366 -0.0032016598 0.0020929405 0.002818498 -0.0031980388 -0.0014613762 -0.00076897774 -0.0037239192 0.00084448827 0.0012773566 0.0018493781 0.0032287193 -0.0018018027 0.0024091133 -0.00026285535
到 0.0010708334 -0.0027369354 -0.0009401387 0.0038347072 0.0037638545 0.0025143272 0.0030463922 0.004158547 -0.0001342888 0.0016748842 -0.0016320285 -0.0011174481 -0.0045498544 -0.0013158474 -0.00016599715 0.0017288912 -0.0023962378 0.0032211335 -0.0014794527 0.001122816 -0.0020210445 -0.0014366359 -0.002491517 0.0038225562 0.0009812849 0.0021513402 0.0013287765 0.0005384779 -0.0024724368 0.0034047659 -0.0013557597 0.0032460012 0.0013818066 0.00046603454 -0.004429449 -0.004011941 -0.0007820046 0.0020035433 -0.0030928934 0.004176942 -4.8442307e-05 -0.0035340441 -0.0005287698 0.0027226205 -0.0005375407 0.002764263 -0.0018075769 -0.002309596 0.004332126 -0.002808467 -0.0003717149 -0.0026191229 -0.0026706522 7.68324e-06 0.0031209167 -0.0018063443 -0.00026764927 -0.0012770762 -0.0030569304 -0.0010192838 -0.0026421333 -0.0024784748 -0.0004330497 0.0008178633 -0.0039833374 -0.0039045233 0.00472868 0.004339432 -0.0003689812 0.0002631955 -0.0025120506 -0.0039049103 -0.0029905436 0.0010150552 -0.0031063408 -0.0004943852 -0.0011617859 -0.0018767079 0.0022024736 -0.0024233006 0.0046804864 0.002659154 0.00022907388 -0.0012825852 0.003866773 0.0012418348 0.0010546482 0.0009895763 -0.0018657651 -0.0031169567 -0.00470861 0.004573624 0.001986995 -0.004319614 0.0029174353 0.0040796516 0.0031363019 0.0015951633 0.0011816111 0.0008517548 0.0032564532 0.0021428552 0.00078145886 0.00071293215 0.004445237 -0.0018228245 0.0032578665 0.002911885 0.0016471322 0.0029099914 0.0024162557 -0.0032077096 0.0007059606 0.00043414108 0.0012234327 -0.0018312715 -0.0015226402 0.005124285 -0.002487864 0.0007682449 0.0005874505 -0.0029051024 0.0006853814 -0.0027357296 0.003795134 0.0020289845 0.0042425594 0.002750253
借 0.0043847626 0.0031093406 0.0004805458 0.0036412438 -0.0028490236 -0.0026959102 -0.0002245508 0.0014910277 -0.0019140366 0.0024834075 0.0032664342 0.0010014786 0.0010552347 0.00056212605 -0.0021140592 0.001528226 -7.957552e-05 0.0033447226 -0.0040690186 -0.00063524686 -0.0026353355 -0.0014837752 -0.0040249606 0.001107868 -0.0029482879 0.00027612672 -0.0012894929 0.00094215595 0.001954779 -0.0017478898 0.0026845362 0.0028437115 0.0029177363 -0.0017389692 -0.002187868 -0.000672588 -0.0045449366 0.0021989797 -0.003319553 0.003965539 -0.0013577201 0.0026143247 0.0026438616 0.0009255491 0.0031190854 -0.0004611304 -0.002472268 -0.0036972999 0.0028214543 0.0039188783 0.0024926905 -0.0015844608 -0.00081926264 0.0019079616 0.00014526553 -0.0037671586 0.00091215776 0.004168221 0.0026443743 0.0016232071 -0.0040206183 0.0024437078 -0.0016558939 -0.0028437595 0.0016286671 -2.992177e-05 -0.00069182157 0.0027470693 -0.0021444974 0.0033840823 -0.00090965733 -0.0027623617 0.00275348 0.0028675199 -0.0026064878 -0.0034375074 0.0019402171 0.0005065395 -0.0014120105 -0.0032312735 -0.0024941885 -0.0025037602 0.0041889986 -0.0007946243 -0.0007112126 0.000536336 -0.004179816 0.0014584564 0.004701263 0.00260739 -0.004629592 -0.0031640946 -0.0029044186 0.00036180802 0.0021023953 0.0026662555 0.0024738414 -0.0042702216 -3.0189474e-05 2.8454762e-05 -0.0013116813 0.00075674424 0.0032884607 0.0035367233 0.002855438 0.001353088 0.0022576384 -4.2904656e-05 0.0029311616 -0.00019995104 0.003919684 -0.0029871864 -0.0026173717 -0.00025091777 -0.00053010206 0.0029661658 -0.0028963813 0.0015518274 -0.0008657122 -0.0023869672 -0.0026254645 0.0016689384 0.0026261294 0.0029098147 -0.002744119 0.003898504 -0.0016896622 0.0015743402
最近 0.0035684027 0.0007163647 0.0018773813 0.00078937097 -0.0030791177 0.0015288888 -0.0038388935 0.0018456369 -0.00333329 -0.0020273456 -0.0030262375 0.00019651062 -0.0011030223 -0.0012206737 -0.00092477136 0.0015633677 -0.0023311747 0.0019264568 -0.0030545357 -0.0023395051 0.0014842234 0.0024199309 -0.0043931073 0.0036847715 0.0021690696 0.0022739281 0.00019238573 0.0022921783 0.0020623477 0.001882805 -0.0008771109 0.0012690261 -0.0015295024 -0.00087580766 -0.001633932 -0.0039541433 0.003364344 -0.0037809976 -0.0024966893 0.0034860852 -0.0031407776 -0.0021210203 -0.001920402 0.0035317242 -0.0012497312 -0.0026086478 0.00067472865 0.0029752925 0.0006668779 -0.00020594058 -0.0021329573 0.004265594 0.0037668133 -0.0033922126 0.0025852746 0.00037855442 0.00037622216 0.0030342946 0.0009945228 0.0015586948 -0.00041843602 -0.0014057969 -0.0007381394 0.004166376 0.00042096188 -0.0029894016 -0.003251124 0.002725992 -0.001098776 0.0021073853 -0.0033394971 0.0008428961 8.978296e-06 -0.00088301214 -0.0011907354 0.0030165045 0.0035327855 0.0033062764 -0.0014001621 -0.0027257407 0.0033745393 0.0023518999 -0.0030898124 0.0022511282 -0.0029467242 0.0006526051 0.0033762828 0.0038915009 -0.001282319 -0.0029862518 -0.0036385567 0.0039100386 -0.00023539801 -0.001277368 0.003928872 0.0017356294 0.003547975 -0.0012287726 0.0039752824 -0.00074915384 0.0009435925 -0.0036937655 0.0008354622 0.0031987578 -0.0004544644 0.0010036649 -0.00017352216 0.0003815418 -0.003871564 0.0016589761 -0.0006652928 -0.003031974 0.00016044818 0.0011829903 -0.0036274625 0.00015083257 -0.0014442044 0.002957828 0.0024746675 -0.0018592913 -0.0031239598 -0.0011871316 0.0033766225 0.0018437979 -0.0028463313 -0.003561055 0.003994273 0.003532622
好吃 0.0022621441 -0.0025952952 0.0028929936 -0.0037034429 0.0027295777 0.002401464 -0.0014920252 -0.0010348113 0.004009387 -0.0017582527 0.002068101 -0.0034802158 0.00059892895 0.0037911495 0.0014857681 -0.001767719 0.0023124511 -0.0013405072 -0.0022950585 0.0005158431 0.003111102 0.0036616658 -0.0002244695 0.0019914552 -0.0006798144 9.541997e-06 -0.003261162 0.0037972417 0.0013626806 -0.00055345043 -0.002228596 0.0012250269 -0.0033864395 -0.0024244587 -0.0023933384 0.0019308225 0.00033302285 -0.003477214 0.0015583906 -0.0028116978 0.0031885016 0.0029865168 -0.0010185112 0.0006652063 -0.0023034944 -0.002360061 0.00221686 -0.0009599306 -0.0005514788 0.00039685366 -0.0033622426 -0.0015660757 -0.00043872403 0.0024954681 -0.003151202 -0.0025559387 0.003304637 -0.002017892 0.0028941163 0.003797363 0.0004729919 -0.001147303 0.0021024342 -0.003256357 -0.0016058439 0.0010983224 0.00073158706 0.0020066027 0.003944817 -0.002485049 0.0031387527 0.0019708348 -0.001170509 -0.00020702959 -0.00045566235 0.00019077113 0.0037076098 0.0023434095 -0.002808987 -0.0020040483 0.0011529003 0.002537198 0.00085012073 -0.0033033164 0.0010086293 -0.0037139105 -0.0032816052 -0.0017886743 0.0027675116 -0.0008824048 -0.0027822703 -0.0013731428 -0.0001417862 -0.00307672 0.001792395 -0.00046413395 0.0003171462 -0.0038364795 -0.0008998449 0.0022124834 0.0036362505 -0.0015293806 0.0027634818 -0.0015641623 0.0040389784 0.0025941553 0.00042013032 -0.0026576505 -4.2509295e-05 0.003431997 0.0017320723 -0.0002944365 0.0029742664 -0.00020805822 -0.0021185563 0.0013822754 0.0027261337 -0.0025527298 -0.0004894383 -0.0008945482 -0.0004024242 -0.00043863163 0.003539653 0.0007199011 0.0033381744 -0.0012903755 0.0023650823 0.0015383019
可不可以 0.002884694 0.0010748403 -0.0011870853 -0.0026951418 0.0029247818 -0.0019817373 0.0035508769 0.0015417165 0.0032078999 -0.0024066835 -0.0023879325 -0.0028091946 -0.00014200926 0.0034821893 -0.0041262563 0.0021784944 -0.00016081693 -0.001960674 0.00090371794 -0.001486641 0.0029013478 -0.0034486793 -0.003940255 0.004106025 -0.0014581339 0.003631669 0.0040493775 0.0024130703 0.00017209322 0.0018113032 0.0009182123 0.0038705512 0.00023363193 -0.00013441568 -0.004115751 -0.0024532124 2.2397397e-05 -0.0015694911 0.002829961 0.0037290044 0.0011627555 -0.0014423521 -0.001001283 0.00088933494 0.001788254 0.0026414557 0.0005021547 -0.00094635953 -0.002476118 -0.002196111 -0.0004153773 1.5165634e-05 0.0027993952 -0.00086756743 0.0013656385 0.00241864 0.00281083 -0.0023182966 0.0017049373 -0.0020524862 -0.0040791687 -0.0042455993 0.0031058458 0.0013643561 -0.0007188604 -0.0025719018 -0.0030236435 0.0032824038 -0.00039413283 0.0016700516 -0.00073494454 0.0022029618 -0.0026814374 -0.0016128547 -0.0013561108 -0.00025624008 0.0009889365 0.0016454307 -0.0034643277 0.0030251457 3.925047e-05 0.003950999 0.004069599 0.002034383 -0.00049299037 -0.00095932727 0.0022293853 -0.002555545 0.0010394774 0.0021683017 -0.00083952793 -0.0034598957 -0.0030442385 -0.0011353149 0.0039302567 0.0035658826 0.0020318034 -0.00058856205 -0.0028439972 -0.0029257862 -0.0013988598 -0.0019972455 -0.0029634105 0.0019425938 0.0041518356 -0.00012346545 0.0017021141 -0.003666362 -0.0033908437 -0.00078093103 0.0041008024 -0.0041045276 -0.0030175084 0.002930095 0.0020472622 -0.000661524 -0.00090396137 0.0018037581 -0.0036831014 0.0026805566 -0.0026480847 -0.00088983384 0.0010736455 0.0031573726 -0.002533664 -0.0019214784 -0.0023997591 0.0010719589
设施 -5.2613077e-06 -0.002448226 0.0032725993 0.0005774981 0.0009275119 -0.002637765 -0.002104667 -0.0030649174 -0.0007891354 0.0027289058 0.0003410637 -0.0027898941 -7.3417023e-06 -0.0033704564 -0.001092964 0.0011970851 0.0038289584 0.0038009374 0.0034388318 0.004242076 0.0015303205 0.0020744705 0.0014514059 0.0011413388 0.0035210135 -6.3209496e-05 0.0009979482 -0.0019739948 -0.001826904 -0.001493289 0.0008731807 -0.00066145917 -0.0016346251 0.0010603014 -0.0019795785 -0.0006097949 -0.001781145 -0.0026681111 -0.0031176785 0.00032527823 -0.0033334198 -0.0036873731 -0.00249831 -0.0031522873 0.003192656 -0.0037361379 -0.004383124 0.0011129138 0.0030461012 0.0018269982 -0.003373543 -0.0007182354 -0.0024346155 -0.0015067909 0.0018522462 0.0013332042 0.001861143 -0.000913871 0.0010538669 0.0035029727 0.0015031816 -0.00023333606 0.000105559826 -0.00023677186 -0.0009660167 -0.0027277987 6.823664e-05 0.0012970709 0.0007976734 -0.0012222736 -0.0033327406 4.4416363e-05 0.0009018794 0.0035968737 0.0022021434 0.0031923673 0.002203296 0.0010655497 0.0003770957 -0.0002152908 -0.002852183 0.0010411113 0.00071888627 0.002635851 0.0047594006 0.0029500003 0.002529026 0.001255383 0.0041820877 -0.003558325 -0.0030933288 -0.00305843 -0.0024216436 0.0014777549 0.0033201766 0.0008475329 0.0043464717 0.0004185342 -0.0003524732 0.0009547483 0.0023728416 0.00060376007 0.005224106 0.0032564246 0.0034155757 -0.0028305277 0.0038988627 -0.000648739 0.00015179178 0.0034929416 0.0021028281 0.0022156837 0.0037923232 -0.0023165569 -8.158432e-05 -0.0030307157 0.00059152546 0.0048986604 -0.003294519 -0.0018663014 0.0027257921 0.0034620143 -0.0036007522 0.0038029808 -0.00013317452 -0.0034334427 0.0040827133 -0.000866254
你好 0.00375702 0.0015319951 -0.0007341252 -0.0005272715 0.0035960362 0.0035675147 0.0029644603 -0.0012005185 0.002614138 0.0013460899 -0.0016587246 0.0017858737 -0.0033219538 -0.0030245224 -0.0037866184 0.002999474 0.0021058163 0.0007248398 0.0037214344 -0.00030001544 -0.00032548408 -0.00012266645 -0.00067184254 -0.0029554467 0.0013422752 0.0013042925 -0.003772198 -0.0014649595 0.0029474173 -0.0010915145 -0.0020999056 -0.0022021118 -0.00058241695 -0.0033477827 -0.0011214416 -0.0034540996 -0.0038595623 -0.00069353956 -0.0038261367 -0.0015103449 0.002045725 0.003524829 -0.002811589 -0.0016957975 0.0006692738 -0.0011400261 -0.0035114589 -0.0010307515 0.002980481 0.0014379533 -0.0010865893 0.0026393174 -0.0017212657 0.0019175796 0.0009085963 -0.0011257664 0.00044350422 0.0016716825 -0.0026523261 -0.003213031 -0.0025758457 -0.003161304 0.00141464 -0.0024896841 -0.0022975218 0.0024967068 -0.0032898062 0.0015134816 0.003786594 0.0010418261 0.0019997924 0.0017594547 0.0033637916 -0.0015478248 -0.0006481432 -0.0021951813 -0.0022621264 -0.0017633939 -0.0010225283 0.0028247898 -0.0012323979 0.00058016856 -0.0009169896 -0.0005205198 -5.0225557e-05 -0.00032378483 0.0013170411 0.0015323525 0.0033775037 0.0024381098 -0.0041315756 -0.0025160005 0.0023079922 -0.0014740311 -0.0027988197 0.0006063398 0.0013239938 -0.0004591533 -0.0032830709 0.0013964251 -0.0020668153 0.0028990312 -0.0006185253 -0.00024383859 -0.0024874532 -0.00037036146 -0.0029707795 -0.0010250391 0.003224077 0.00015622242 -0.003706856 -0.0033561625 -0.0005135936 -0.00017189735 -0.0011074212 0.00038044143 0.001870544 0.0042513586 -0.0017653116 6.789828e-05 -0.0031700658 0.0012534551 0.00305419 0.00065858057 0.0007466927 0.00072317023 -0.0026192681 -0.0008146593
知道 0.0027184729 -0.0024566434 0.003803261 -0.0012003039 -0.0038474556 -0.0005988449 -0.0006183131 -0.0028165542 0.0039903135 0.0027750118 -0.00038721695 -0.003992222 -0.0028768098 -0.0006035514 0.002278412 -0.002142509 0.0026143885 0.0025119316 6.735884e-05 0.0025299988 0.003487801 -2.8826094e-05 0.00017812275 0.0033027595 0.0019965176 -0.0020680483 0.0038691803 0.004641342 -0.0022187082 -0.00017620629 -0.0017990022 0.003536717 -0.0028895752 -0.0020590362 -7.81684e-05 0.0027417052 -0.0046303566 -0.0039685983 0.002660879 0.00040384344 0.0014765699 -0.0013152447 -0.0030974497 -0.0021579817 -0.0016462716 -0.0007738052 -0.0016697769 -0.003023289 -0.00043856987 -0.0015833091 0.0025435067 0.0036379742 0.003671367 -0.0036153365 -0.00029599943 1.2974896e-05 0.0012566822 -0.002423144 -0.0030946783 0.0034980434 0.0006422301 0.001333358 -0.0016408167 -0.00014049589 0.00051664014 -0.0044391607 0.0027195902 -0.0024065746 0.0030296145 -0.0020768961 -0.0005431163 -0.0035551179 -0.0022675947 -0.0029968165 0.0022383651 0.0015984824 0.0012298366 0.0002504738 -0.00043283642 0.0010980621 0.003638575 -0.0023562647 -0.0026549506 -0.0028250134 -0.0014616475 -0.002156152 -0.0041596876 -0.00068618444 0.00039698018 0.00044005588 -0.0018727419 0.0012628605 -7.938453e-05 -0.0039368295 -0.0023115142 0.0003957281 0.0010162794 -0.003683689 0.00091400865 0.0031209753 -0.0019256916 -0.0033046692 -0.0017592825 0.0034272366 0.00086448656 -0.0008986263 -0.003367599 -0.0035633715 -0.0038091957 -0.0008033095 0.00011156017 0.0019055011 0.0018525454 0.0026066354 0.003206565 -0.0024299072 0.00075592875 0.0009604461 0.0009828052 0.0014261776 -0.0007538023 -0.001841033 0.0024800214 -0.0026118346 -0.0021994375 0.0039284113 -0.0016149459 -0.00066464586
没有 0.0013902346 0.0030712641 -0.00207401 0.0019427554 8.087415e-06 -0.0017450306 -2.7507738e-05 0.0017806495 -0.00088366034 -0.0020416372 -0.002406762 0.00037642848 -0.0023157042 0.0036494448 -0.0039928816 0.0013545904 0.0019233349 0.0012551171 0.0028783767 0.0026631695 0.0027047847 0.0030766581 -0.0015294508 0.0019322706 0.00068823993 -0.00021190032 -0.0033991104 -0.0010882734 -0.0012910777 -0.00083036243 0.003703441 0.0020261086 -0.0032471095 -0.003967395 -0.0011384237 -0.002702452 -0.004616439 -0.0002630867 -0.0024132652 -0.0035958898 -0.0036175216 0.003982285 0.0030185778 0.0015058415 -0.0012520837 -0.0003927343 0.0033350922 0.0022303823 0.004347182 -0.00030430866 0.0026188649 0.0034718653 0.0008450497 -0.0039916774 0.0022991018 8.883181e-05 0.00048156115 0.0013641197 -0.0022867215 0.002538948 0.0013790559 -0.00092444516 -0.0031208636 -0.0019894915 -0.0038654439 -0.0048511373 0.0042387466 -0.0026179955 2.146469e-05 -0.0018932052 -0.0016821034 0.0033221615 0.0018837657 -0.003077442 0.0017335252 0.003490767 0.003553712 -0.0011043652 -4.2828677e-05 0.0012215208 0.0008762673 0.0014385948 0.0016391575 -0.0002598348 0.0043095862 0.0018747309 0.0030969863 -0.0010690254 -0.0005837451 0.0034461766 -0.0035127562 -0.0012448806 -0.00093678705 -0.003273172 0.0006067314 0.0024925594 0.0030289113 -0.003869074 -0.0029933467 5.8689075e-05 0.0012135055 0.0016360866 -0.00036757084 -0.001799746 0.0024147008 0.002630319 0.0006033861 0.0008050577 -0.0037937483 -0.0016962396 0.0019001046 0.0011554699 -5.8832698e-06 0.00090364786 0.002799175 6.5604996e-05 0.0034647312 0.0016912015 7.76681e-05 0.0028707576 0.0019172349 0.0034122565 -0.0030271458 0.0013165016 -0.0025755628 0.0031937198 0.00084248604 -0.000114799295
告诉 -0.0017507692 0.002524782 0.0023917314 -0.0005239451 0.0005855319 -0.0036391998 0.00010714716 -0.0018781443 0.0038773709 0.0036915222 -0.0029403686 -0.0036960265 0.001124745 0.0032930335 0.0026314752 0.00096134754 -0.000257403 -0.0028622462 0.0023090262 0.00040852197 0.0010513244 -0.0019884787 0.0023695808 0.003744284 -0.00095457584 0.0015224646 0.0023800642 -0.0014500767 0.0017651414 0.00052900246 -5.0687362e-05 -0.0025297746 -0.0027045268 -0.0001199514 0.0012728396 0.0008188553 0.0007635053 0.0015309884 -0.0031018008 0.0038226475 -0.00030956257 0.0017657729 -0.0020980805 -0.0007872921 -0.0028284611 0.0040103686 0.0009832329 -0.0017503005 0.0033101076 -0.0014900212 0.0008546998 0.0031886208 0.00074423564 0.0019691605 0.0009837528 0.00011572132 0.0028642896 0.0017322692 -0.0027820768 -0.0028501374 0.00016517681 -0.0015351454 -0.00040299175 -0.0022584703 0.0011336724 0.00022737401 0.0012864966 -0.0011995581 0.002395194 -0.0012990119 -0.0004546446 0.0031444163 0.0012223645 0.0016571098 0.0038144481 -0.0015541158 -0.003304697 -0.0017551215 0.0037064208 -0.0009694064 -0.0019419027 0.0038264885 -0.00061096234 -0.0002810976 -0.0025448466 -0.0027169555 0.0021160864 9.568365e-05 2.315954e-05 -0.003670595 -0.0008649517 0.0033996478 -0.0031273938 0.0022829229 -0.0006672733 0.00016947763 0.0035304814 -0.00013128668 -0.0022747412 0.0027854643 -0.00042467975 0.0016652026 0.00047080716 -0.0036283066 -0.0025475149 -0.0029160313 -6.737495e-06 -0.00018707459 0.0033268144 0.0034800181 -0.0020396488 0.002963198 0.0007861223 -0.0038536803 0.0029823661 0.002515775 0.0013273302 -0.0012159534 0.00029876787 -0.0040350994 0.0014831246 0.002894439 -0.0026256957 0.0020345598 0.0042593894 -0.002274392 0.0004206327 0.0035295244
餐厅 0.004000549 -0.00045284696 0.0011687595 -0.0017615596 -0.002649426 -0.001298965 0.0023815376 -0.0005833686 -0.0022525254 -0.0018542387 0.00084298966 -0.001282354 0.0022623239 0.0015818169 0.0010421869 0.0034654222 -0.0036700605 0.0032691197 -0.0014607197 0.0038469173 -0.0016441299 0.002514436 -0.00040295106 0.00021411432 -0.0029767202 0.0020548666 -0.000491347 -0.002232285 0.0011198975 0.001920817 0.0014944974 0.0024101876 -0.00092050136 -0.001866973 -0.0010301538 0.0009941461 0.00013339872 -4.2744283e-05 -0.0032860069 -0.0017899945 -0.0023111952 0.0017087086 -0.0014685144 -0.0035240264 0.002948033 0.0009309879 -0.0014121378 0.0008439914 0.0009772358 -0.0005024309 0.0013470979 0.003722101 -0.0022795203 -0.0024948576 0.0014434669 -0.0036151125 -0.0020005796 -0.0013256449 0.0019647859 0.002330586 -0.0038695247 -0.0026742578 -0.0020988397 0.0033395316 -0.00022748002 0.0017872017 0.0018024986 -0.0018755008 0.0003566182 -0.00044583718 -0.00063592155 0.0014297417 -0.0019275974 0.003391793 0.0029569948 0.0021940966 -0.001998504 -0.0020403555 -0.0026665435 0.00047281146 -0.0018486708 -0.0011412825 0.002345903 0.0018744565 0.00068311195 -0.003473047 -0.0026949996 0.0013442907 -0.0019709456 0.0035924448 -0.0035042628 0.0019494154 -0.002395075 -0.00083727966 0.0017826993 0.00077263813 -0.0010668519 -0.00061831163 0.0036399213 -0.0012256999 -0.0015710159 -0.0022955993 0.00019849947 -0.00091432495 -0.0003736632 0.001817023 0.0001939083 0.00086969836 0.00013010178 0.002900381 0.00077753793 -0.00023158365 -0.0031329794 0.0035972707 -0.003201472 0.0011592467 0.00043248115 0.001995538 -0.0031405902 -0.0015552505 -0.0029814157 0.0032797395 -0.002073891 -0.00072578737 -0.0004628443 -0.0026693472 0.0021867233 0.00018547785
推荐 -0.0016983957 -0.0012659212 -0.002432373 -0.0030403521 -0.0023234994 0.0010971877 0.003377159 0.0033621055 -0.0018095449 0.00031541908 -0.0006140438 0.0021790385 0.0006924122 -0.0027867833 -0.0030061658 0.0026768614 0.0014144543 -0.0010243674 -0.00077805767 0.0033901792 -0.0035647883 -0.002917999 0.00015227831 0.0029869901 0.0019509135 -0.0032779693 -0.00093702954 0.00069004786 -0.002157781 -0.0025087341 0.0037429533 0.00059086666 0.000566042 0.0033711917 -0.00068344525 -0.0026217382 0.0010545362 0.001217295 -0.003221544 0.0021101343 -0.0018988709 -0.00054037437 0.0019933223 0.00017909844 0.0016066937 -0.00013414679 -0.0013067909 0.0015031092 -0.0014167611 0.001118012 -0.0020454857 -0.00029289984 0.0026089107 0.0025668584 -0.002149629 -0.00048397132 -0.003434703 0.0023059568 -0.0022833846 0.00075534196 -0.003337349 0.0016117652 -0.00048035118 -0.001992169 -0.0016229892 -0.00030751544 5.5175566e-05 0.0041740867 -0.0022928512 0.0033384734 -0.0011095753 -0.0034647875 0.00037934948 -0.00075973984 0.0030188197 0.00046886032 -0.0011274735 -0.001391303 0.002385685 0.0012987594 0.00015288929 0.0018516858 -0.0030973686 -0.003005211 0.002684271 0.003144383 0.001174528 0.0020498976 -0.0030555963 0.0024702935 -0.00018560517 0.0013376819 0.0024286616 -0.0021332519 -0.003409534 0.0035531023 0.0021313243 -0.001635933 0.0024985073 -0.0027381307 -0.0030479806 0.0030916287 -0.00022745293 -0.0020703084 -0.001443184 0.0014760146 -0.0028573351 -0.0004033623 -0.0031187488 -0.0020366465 0.0035533255 0.0032883827 0.0011558866 -0.003265002 -0.0007188738 0.002410954 8.613047e-05 0.0007250244 -0.0014505339 0.003239302 -0.004061722 -0.0028767753 0.00058609725 0.0021460839 0.00026722587 -0.0006414973 0.0015251167 0.0037927981
停电 0.002888733 0.00047613963 -0.0020532983 0.0029261925 -0.0020849914 0.0032834238 0.0033537075 -0.0017467694 -0.0015565249 -0.0005157161 -0.0007056786 0.00063987524 -0.0028089955 0.0009384027 -0.0010078413 0.0020011675 -0.0028976589 -0.0028792238 0.0012479947 -0.0014424489 0.0020644362 -0.0016556416 -0.0035269456 0.003800133 -0.00049329875 -0.0029871766 -0.0004898441 0.0022052403 0.0015642837 -0.00066216424 0.0039567263 0.0028553463 0.001340757 -0.0017910002 -0.0006945944 0.000904644 -0.00038423014 -0.0015859441 -0.000979691 0.002463011 0.002496764 -0.0016161526 -0.0018613231 0.00020887017 0.0031876198 -0.0014292073 0.0015224013 0.0033445978 -0.0010149694 0.00025479187 -0.002582318 0.00021596946 0.0028003284 -0.00070602086 0.0009863575 -0.0016030187 0.0021443397 0.0025903394 0.0033243755 0.00320304 0.0022129118 -0.00017317489 -0.0009717062 0.003785222 -0.00019089019 -0.0043339045 0.004239331 0.0038128584 -0.003202289 0.003069397 0.00023004037 0.0025771835 -0.0020733862 -0.00194072 0.002428441 -0.0002798907 0.0035620385 0.0010068417 -0.0022760695 0.003509847 0.0013009601 -0.002775192 -0.0009445069 -0.0042006182 0.0031658066 0.0033730587 -0.0037795706 -0.002456835 -0.0008235162 -0.0035399098 0.0029410205 0.00092348503 -0.0019334947 -0.0036139027 0.003958958 -0.0017986785 -0.0013814892 -0.0013857045 -0.0011684374 -0.0033958082 0.0003788114 0.00012491258 0.0042110137 -0.0025964123 0.0027888222 0.00045311535 0.0015828863 0.0028205686 -0.003544149 -0.0021099234 -0.0031436323 -0.0032754787 0.0019946634 0.00019015606 -0.0025696377 -0.00085979584 0.0010333201 -0.0029978207 -0.0009866066 -0.003293615 -0.002930486 -0.0021669155 0.0014326671 6.357626e-05 0.00090357073 0.0019076988 0.0020564361 0.0024980088
应该 -0.0024103448 -0.0017144956 0.00082085916 -0.0015287166 -0.0015779122 -0.001256534 -0.0019968487 0.003424204 0.0020676765 0.0011227245 -0.0011162179 0.00081856863 0.002526373 -0.00244211 -0.0017089008 -0.002111714 -0.0026133298 0.0026605355 -0.004066764 0.00054667256 0.00090014434 0.0030930538 -0.0018293343 0.001712679 0.001806819 -0.0035657268 0.0025613126 0.0032423264 -9.5969255e-05 0.0039322264 6.026813e-05 0.0020772025 -0.0016414085 -0.0017651744 -0.003219445 -0.00019932965 -0.0042889286 -0.00028082906 -0.0012996859 -0.00054940564 -0.0006612625 -0.0035196196 0.000537454 0.0028009515 0.0036481433 -7.5786804e-05 0.0021858066 0.003498273 0.0012659403 -0.0009106262 0.0041763578 0.0021560297 -0.0023160798 -0.0021854523 -0.0027927945 0.003725546 0.0020947598 -0.00056084956 0.0026962336 -0.0031370313 -0.0046500145 -0.0015744116 -0.00022539121 -0.003462903 -0.003584503 -0.0017319 0.003931294 0.0025786767 0.00420035 -0.0004016974 0.003487494 -0.0034028343 0.0008997704 0.0025355855 0.0007217287 0.0021320914 -0.002866165 -0.0027077582 0.0002667773 0.00083247916 -0.0015738022 0.0019363251 0.0005791374 -0.002977831 0.0017668918 0.00077152887 0.0014774079 0.0009944298 0.0010223261 -0.0007508355 -0.004278434 0.0017104526 -0.0042571607 -0.0030037852 0.0007366167 -0.00015393135 -0.002776835 -0.0023798905 0.0019894347 0.0008548316 -0.003261237 0.0008041915 0.003883459 -0.001329761 1.2815519e-05 -0.00018033256 0.0011989694 0.0037786083 0.000635084 0.0017177333 0.0008169648 -0.0035320052 5.4593685e-05 0.0031003482 -0.0032166666 0.00040165734 -0.0020593496 -0.0011802287 0.00093784614 -0.0032967653 -0.0028038423 0.0019298478 -0.003203026 -0.0017341663 0.001981699 0.0035175409 -0.001858413 -0.0026969973
时候 0.003939823 -0.003397797 -0.0034580333 0.0012436071 0.003148932 -0.0021982905 0.00042708553 -0.0004744064 -0.0008216458 0.002687034 0.0020984793 -0.0031790857 0.0018811782 0.00049572793 -0.002903759 9.116301e-05 0.003916848 0.0034166963 -0.0008480563 -0.0027863747 -0.000400416 0.003158035 -0.0006670274 -0.00038118393 -0.000496324 0.0021513558 -0.0035505665 0.003475023 0.003136885 0.0017816324 -0.0012277234 -0.0019885758 -0.0001844791 0.002470368 0.002935444 0.0019622284 -2.0638134e-05 0.00012464261 -4.6888956e-05 0.000527251 -0.0028235456 0.0036410873 0.0017566273 -0.0024492063 -0.0014051397 0.0016259141 0.0020066898 -0.00027992655 0.004308194 -0.0035789132 -3.6218484e-05 0.0041088043 -0.0016442586 0.002494981 0.0031622425 0.0034776116 -0.0030065584 -0.002520718 -0.0020526506 -0.0029248293 -0.004225824 -0.0012336747 0.0002916735 0.00051180436 -0.0027617693 -0.00088489515 -0.002772691 0.0011970458 -0.0014341492 0.0019382682 0.00086564524 0.0038252752 -0.0031543062 -0.0016715996 -0.0035990407 0.0025279797 -0.001107227 -0.003881687 0.00043784743 -0.0009897482 -0.002025312 0.002691943 0.0015735624 -0.00049310917 0.00031451584 0.0025213903 0.0010418575 -0.003621376 0.0045292536 -0.00085883844 0.0031597198 0.00029347453 -0.003334583 -0.0003320915 0.0008989213 0.0029582256 0.002047503 -0.002320279 -0.001019081 -0.00041446765 -2.0135954e-05 -0.003827505 -0.0015080544 -0.0015416614 -0.0017959736 0.0030829392 -0.000480994 -0.0006044117 -0.002467318 -0.0009207684 0.0013671627 0.0015271761 0.0010397233 -0.0035350365 0.003369642 0.0036956598 -0.00045277682 -0.0006512482 0.0018138222 0.0021357357 0.0013089108 0.00028655032 0.0028789893 -0.0020067377 0.00034642612 -0.0024299284 -0.0027601668 0.0010522272
哪边 -0.002291676 0.00048745604 -0.002227108 0.0014495836 0.001961556 0.0023608275 0.0034478416 0.0035685683 0.0019695882 0.0039208154 -0.0012973723 0.00047067975 -0.0010570533 -6.9898364e-05 -0.0029236106 -0.0022758883 -0.0017528164 -0.0008429179 -0.00089684216 -0.0016193284 -6.9180904e-05 -0.0021958076 -0.00023830227 -0.00089372176 -0.0013317836 1.724808e-05 0.0017140441 -0.00082623103 -0.0038410537 0.00315096 7.086007e-05 -0.00013715819 0.0030480723 0.0024751658 -0.0011514121 -0.00058094336 -0.0027249558 -4.4348893e-05 0.0020439688 -0.0016213533 -0.00090385054 -0.00056016585 0.0021976433 0.00040224832 0.0007281671 0.0025649536 0.0013459417 0.00269838 0.0011196444 -0.00040532026 -0.0012673744 0.0035245665 -0.003005375 -0.004505432 0.0031881544 -0.0008659376 0.0036830145 0.004601241 0.0005493544 0.00045869313 -0.0027635186 0.002920742 -0.0036891152 -0.0022004577 -0.004073693 -0.0030517133 -0.0032340372 -0.0024317075 0.0027147762 -0.0027426388 -0.00019246312 -0.0021901987 -0.002906958 0.0006170495 -0.0015994351 0.002528528 -0.0013547599 -0.00097150553 0.0038593174 -0.0019560235 0.0017924024 0.00022594487 0.003314563 0.0030434278 -0.0017687608 0.003246214 0.0013985286 0.0040525035 0.0038036674 -0.003421625 0.00096766395 -0.0032468797 -0.0025797046 -9.394264e-05 -0.0032518117 -0.0011747734 0.0045917714 -0.0011774853 0.0017600841 0.0011303708 -0.0028700244 0.0024526748 -0.0013658439 0.0006603819 0.0011704367 -0.003486682 0.0024259728 0.0016494585 0.0031967738 -0.0028487016 -0.0013731038 -0.00024715264 -0.0038112046 0.0034223443 -0.0025063977 0.0017401045 -0.003673118 0.0020949463 0.0004954251 -0.0036532378 -0.00073709857 0.003990885 0.0022332983 0.002038953 0.0006347134 0.00026532295 0.0018440152 0.00043476024
停水 0.001114261 -0.002504255 -0.0010292031 0.00029025934 -0.0017346257 0.0028649021 -0.002891691 -0.0023413738 -0.003076096 0.00023767632 0.0007425113 0.0007866507 -0.00048537593 -0.0015210764 -0.0039310274 -0.00064130046 -0.0015579882 0.0034654927 -0.000765305 0.0015782301 0.00089816976 -0.0034776838 -0.0022541648 0.002121286 0.003972167 0.0021708447 0.0037262312 0.001143683 -0.0032555647 0.003846116 -0.0015094837 0.00088233536 -0.0014427457 -0.00017066475 -0.001001574 -0.0030830128 0.0007127614 -0.0034456982 -0.0034089817 0.0019997028 0.00026147874 -0.0012994688 -0.0020606893 0.00190303 -0.00038732856 -0.0037265427 0.0006738625 0.0018506105 -6.511758e-05 -0.0035141623 -0.0021899738 0.0032519763 0.0002907098 -0.0015674012 -0.0007110851 -0.002373112 -0.0030079493 0.0025749104 -0.0022498465 -0.0024742137 0.0006374882 0.002821046 -0.0024103434 0.001862623 0.0010355004 0.0015839083 -0.0009262748 0.0034092627 0.0011742266 -0.003835697 0.003939428 0.0036376903 0.0013653031 0.0015088527 0.000985453 -0.0037714483 0.0032613538 0.0011602934 -0.0030359894 -0.00020902143 0.0029607925 0.0024421117 0.0038607689 0.0010272713 0.00018107357 0.0030330347 -0.0006781359 -0.0033794567 -0.0006305609 0.0038687063 -0.0005447557 -0.0016909677 0.0019380061 -0.00041002184 0.0037737123 0.0004006916 0.0007859614 -0.002899152 -0.0011860363 -0.00040614326 4.4511384e-05 0.00021330903 -0.0025838516 0.0012057808 0.003996603 0.0034766067 0.0021391336 0.0024805188 0.0015838083 0.0006623702 -0.0011741375 0.0026948394 0.001903186 0.003242245 0.0024050556 -0.0026549024 -0.0024966449 0.0010037429 0.0030369721 0.00017330033 -0.0021257757 0.0038224969 -7.6666154e-05 -0.0017762615 -0.002087961 0.00026504917 -0.0019072394 -0.0035270157
维修 0.0011757647 -0.0020664725 0.0040780935 -0.003186811 -0.0037142702 0.0012417954 -0.0014066517 -0.0013112302 -0.001747947 0.00042535816 0.001555999 0.0006286732 -0.004111923 -0.0014929007 -0.0038556834 -0.0011129788 -0.0029246386 -0.001049904 0.00045770928 0.0007336338 0.00078794284 0.003335967 -0.00440595 0.0021426992 0.0013688987 -0.0037218996 0.001085233 -0.00035034792 -0.0009298887 0.0020968847 0.0005829399 -0.0016457665 -0.00095084944 -0.00012944995 0.00035444662 0.0019710986 0.00037797692 0.0019933197 0.0031617437 -0.0004858764 0.000106462874 -0.0018594357 -0.0013839159 -0.003059257 -0.0010831124 -0.0018972976 -0.0018088457 -0.0017002336 0.0037317288 0.003904992 0.0032925564 0.00094692677 -0.0005194444 -0.002336349 0.001434763 -0.0015777326 0.0026069642 0.001636523 -0.003704811 0.0011225599 -0.0013572854 0.0006173839 0.0035727792 -0.002341262 -0.0037280326 -0.0028382225 0.0013489325 0.0023468484 -0.002279687 -0.0015138289 -0.0015943322 0.001976003 -0.00097245467 -0.0017954344 -0.0010401879 -0.00039367267 -0.00093111803 0.00014546856 -0.000112473994 0.0040223394 0.0012284177 -0.00048031827 0.00015535062 -0.003559754 -0.0015820179 0.0013782562 0.0015557425 -0.0027091578 0.0008901617 -0.0004944937 -0.0003804459 -0.0015980793 0.001150293 -0.00050094473 0.0021727402 -0.00015138739 0.00015062132 0.0009951745 -0.001578243 -0.004049673 -0.0016439648 0.0030974417 0.0028442678 -0.00028619918 0.000713466 0.00028549245 0.0010557238 0.0035028993 -0.0034012455 0.0032183167 0.0033660433 0.0016836585 -0.002083171 0.0019755575 -0.0006383714 0.00225073 0.0005871618 0.0014832456 -0.0001582408 0.0035329587 -0.0041399705 -0.0025097695 -0.0029012165 0.00047088717 -0.0019780027 -7.2170566e-05 0.0027689822 0.0019067378
